{"learner":{"attributes":{"scikit_learn":"{\"_estimator_type\": \"classifier\"}"},"feature_names":[],"feature_types":[],"gradient_booster":{"model":{"gbtree_model_param":{"num_parallel_tree":"1","num_trees":"200"},"iteration_indptr":[0,1,2,3,4,5,6,7,8,9,10,11,12,13,14,15,16,17,18,19,20,21,22,23,24,25,26,27,28,29,30,31,32,33,34,35,36,37,38,39,40,41,42,43,44,45,46,47,48,49,50,51,52,53,54,55,56,57,58,59,60,61,62,63,64,65,66,67,68,69,70,71,72,73,74,75,76,77,78,79,80,81,82,83,84,85,86,87,88,89,90,91,92,93,94,95,96,97,98,99,100,101,102,103,104,105,106,107,108,109,110,111,112,113,114,115,116,117,118,119,120,121,122,123,124,125,126,127,128,129,130,131,132,133,134,135,136,137,138,139,140,141,142,143,144,145,146,147,148,149,150,151,152,153,154,155,156,157,158,159,160,161,162,163,164,165,166,167,168,169,170,171,172,173,174,175,176,177,178,179,180,181,182,183,184,185,186,187,188,189,190,191,192,193,194,195,196,197,198,199,200],"tree_info":[0,0,0,0,0,0,0,0,0,0,0,0,0,0,0,0,0,0,0,0,0,0,0,0,0,0,0,0,0,0,0,0,0,0,0,0,0,0,0,0,0,0,0,0,0,0,0,0,0,0,0,0,0,0,0,0,0,0,0,0,0,0,0,0,0,0,0,0,0,0,0,0,0,0,0,0,0,0,0,0,0,0,0,0,0,0,0,0,0,0,0,0,0,0,0,0,0,0,0,0,0,0,0,0,0,0,0,0,0,0,0,0,0,0,0,0,0,0,0,0,0,0,0,0,0,0,0,0,0,0,0,0,0,0,0,0,0,0,0,0,0,0,0,0,0,0,0,0,0,0,0,0,0,0,0,0,0,0,0,0,0,0,0,0,0,0,0,0,0,0,0,0,0,0,0,0,0,0,0,0,0,0,0,0,0,0,0,0,0,0,0,0,0,0,0,0,0,0,0,0],"trees":[{"base_weights":[2.597426E-2,8.6671966E-1,-9.3026173E-1,1.2406652E0,3.122061E-1,-5.974274E-1,-1.7127432E0,1.5276531E0,1.0490582E0,6.751062E-1,4.304456E-2,-2.1030869E-1,-7.973284E-1,-1.5035794E0,-1.8255887E0,1.6698772E0,1.3287768E0,1.3705992E0,8.032022E-1,3.2233244E-1,8.7623596E-1,-8.98657E-2,5.928637E-1,-8.673838E-3,-8.743899E-1,-1.2088503E0,-7.0231605E-1,-1.8014012E-1,-1.2582034E0,-1.1301591E-1,-1.8466796E-1,1.7112665E-1,1.0833148E-1,1.4515601E-1,1.1558461E-1,5.9136212E-2,1.4270554E-1,8.9956895E-2,2.516742E-2,5.3025454E-2,-1.1246455E-2,1.07888274E-1,6.1567795E-2,-6.384149E-2,-1.9733024E-4,1.4742452E-2,9.195624E-2,-3.8547456E-2,1.5251114E-2,-1.2218114E-1,-5.120924E-2,-7.038717E-2,-1.382482E-1,-4.927239E-2,-8.624505E-2,-6.0789376E-2,-1.3333449E-1],"categories":[],"categories_nodes":[],"categories_segments":[],"categories_sizes":[],"default_left":[0,0,0,0,0,0,0,0,0,0,0,0,0,0,0,0,0,0,0,0,0,0,0,0,0,0,0,0,0,0,0,0,0,0,0,0,0,0,0,0,0,0,0,0,0,0,0,0,0,0,0,0,0,0,0,0,0],"id":0,"left_children":[1,3,5,7,9,11,13,15,17,19,21,23,25,27,29,31,33,35,37,39,41,43,45,47,49,51,53,-1,55,-1,-1,-1,-1,-1,-1,-1,-1,-1,-1,-1,-1,-1,-1,-1,-1,-1,-1,-1,-1,-1,-1,-1,-1,-1,-1,-1,-1],"loss_changes":[1.3762904E3,1.8850525E2,2.0757495E2,2.829596E1,3.593915E1,4.34366E1,2.8841553E0,3.8761597E0,2.4925842E1,1.0838882E1,1.5581201E1,2.586753E1,1.3665939E1,4.2553406E0,1.1657715E-1,1.1018066E0,3.3395386E-1,5.3697205E0,9.818192E0,5.347974E0,4.575989E0,8.290972E0,5.90337E0,9.1229315E0,5.0381584E0,5.0107803E0,9.777634E0,0E0,1.7425385E0,0E0,0E0,0E0,0E0,0E0,0E0,0E0,0E0,0E0,0E0,0E0,0E0,0E0,0E0,0E0,0E0,0E0,0E0,0E0,0E0,0E0,0E0,0E0,0E0,0E0,0E0,0E0,0E0],"parents":[2147483647,0,0,1,1,2,2,3,3,4,4,5,5,6,6,7,7,8,8,9,9,10,10,11,11,12,12,13,13,14,14,15,15,16,16,17,17,18,18,19,19,20,20,21,21,22,22,23,23,24,24,25,25,26,26,28,28],"right_children":[2,4,6,8,10,12,14,16,18,20,22,24,26,28,30,32,34,36,38,40,42,44,46,48,50,52,54,-1,56,-1,-1,-1,-1,-1,-1,-1,-1,-1,-1,-1,-1,-1,-1,-1,-1,-1,-1,-1,-1,-1,-1,-1,-1,-1,-1,-1,-1],"split_conditions":[6.651971E-3,1.2235787E-3,9.6834457E-1,8.409493E-6,1.669378E-5,3.4573502E-5,9.950956E-1,2.9831153E-4,1.7629574E-4,1.8649913E-2,4.0586555E-1,9.7479925E-2,6.377966E-3,3.5561975E-2,3.851126E-6,6.286844E-1,2.5451777E-6,1.50807045E-5,4.809664E-3,6.629611E-6,3.030813E-3,3.0635452E-5,2.303191E-4,1.605626E-2,9.192245E-6,1.3970548E-2,2.7988847E-2,-1.8014012E-1,5.619705E-6,-1.1301591E-1,-1.8466796E-1,1.7112665E-1,1.0833148E-1,1.4515601E-1,1.1558461E-1,5.9136212E-2,1.4270554E-1,8.9956895E-2,2.516742E-2,5.3025454E-2,-1.1246455E-2,1.07888274E-1,6.1567795E-2,-6.384149E-2,-1.9733024E-4,1.4742452E-2,9.195624E-2,-3.8547456E-2,1.5251114E-2,-1.2218114E-1,-5.120924E-2,-7.038717E-2,-1.382482E-1,-4.927239E-2,-8.624505E-2,-6.0789376E-2,-1.3333449E-1],"split_indices":[0,0,0,1,1,1,0,0,0,2,2,0,2,2,1,2,1,0,1,1,0,1,1,2,1,0,0,0,1,0,0,0,0,0,0,0,0,0,0,0,0,0,0,0,0,0,0,0,0,0,0,0,0,0,0,0,0],"split_type":[0,0,0,0,0,0,0,0,0,0,0,0,0,0,0,0,0,0,0,0,0,0,0,0,0,0,0,0,0,0,0,0,0,0,0,0,0,0,0,0,0,0,0,0,0,0,0,0,0,0,0,0,0,0,0,0,0],"sum_hessian":[1.7099053E3,9.099496E2,7.999557E2,5.4272E2,3.6722968E2,5.624689E2,2.3748685E2,2.1448813E2,3.282318E2,1.5574138E2,2.1148828E2,1.9223935E2,3.702295E2,8.824511E1,1.4924173E2,1.2074332E2,9.374481E1,1.4024223E2,1.879896E2,5.7496815E1,9.824456E1,1.7099052E2,4.0497757E1,1.4824179E2,4.3997562E1,6.724628E1,3.0298322E2,3.699795E1,5.124716E1,5.9996676E0,1.4324207E2,1.1099385E2,9.74946E0,5.0497204E1,4.3247604E1,1.0249433E1,1.299928E2,1.5949117E2,2.8498423E1,3.8747856E1,1.8748962E1,5.3497036E1,4.474752E1,2.2748741E1,1.4824179E2,1.7749018E1,2.2748741E1,4.3997562E1,1.04244225E2,2.1248823E1,2.2748741E1,1.8498976E1,4.87473E1,1.3299263E2,1.6999059E2,6.249654E0,4.499751E1],"tree_param":{"num_deleted":"0","num_feature":"4","num_nodes":"57","size_leaf_vector":"1"}},{"base_weights":[-1.3178362E-2,-1.8842382E0,1.9374994E0,-1.9047403E-1,-9.287275E-1,9.4754684E-1,1.9521151E-1,-3.8059482E-3,-1.273012E-1,1.5015058E-1,1.0935914E-2],"categories":[],"categories_nodes":[],"categories_segments":[],"categories_sizes":[],"default_left":[0,0,0,0,0,0,0,0,0,0,0],"id":1,"left_children":[1,3,5,-1,7,9,-1,-1,-1,-1,-1],"loss_changes":[6.291666E3,1.5467773E1,1.0361328E1,0E0,6.2174683E0,6.43946E0,0E0,0E0,0E0,0E0,0E0],"parents":[2147483647,0,0,1,1,2,2,4,4,5,5],"right_children":[2,4,6,-1,8,10,-1,-1,-1,-1,-1],"split_conditions":[2.1777329E-1,7.156138E-2,7.561382E-1,-1.9047403E-1,1.2919317E-2,4.6873203E-5,1.9521151E-1,-3.8059482E-3,-1.273012E-1,1.5015058E-1,1.0935914E-2],"split_indices":[3,3,3,0,2,1,0,0,0,0,0],"split_type":[0,0,0,0,0,0,0,0,0,0,0],"sum_hessian":[1.7218219E3,8.7886365E2,8.429583E2,8.594297E2,1.943391E1,1.3222179E1,8.2973615E2,5.727457E0,1.3706453E1,7.484377E0,5.7378025E0],"tree_param":{"num_deleted":"0","num_feature":"4","num_nodes":"11","size_leaf_vector":"1"}},{"base_weights":[-6.92281E-3,6.8436277E-1,-7.663489E-1,1.0441517E0,3.1900454E-1,-5.0152504E-1,-1.4257109E0,1.2854935E0,8.8344234E-1,-6.773451E-2,4.640894E-1,-1.581679E-1,-6.772028E-1,-1.2587056E0,-1.5367074E-1,1.3947413E0,1.1394286E0,1.1936969E0,7.201554E-1,4.512334E-1,-2.8563726E-1,7.6702327E-1,3.1558883E-1,2.341397E-1,-4.1581556E-1,-1.0526638E0,-5.613701E-1,-1.3354759E-1,-8.36338E-1,1.4323048E-1,7.032665E-2,1.2346722E-1,8.6094916E-2,4.7924787E-2,1.2376236E-1,3.497642E-2,8.022E-2,7.842782E-2,1.961188E-2,-8.252142E-2,-1.7884344E-2,9.640868E-2,5.386257E-2,3.7622277E-2,-1.0983582E-2,8.529895E-2,5.6919563E-3,-5.9109952E-2,-8.620332E-3,4.450855E-3,-1.1322831E-1,-3.4935903E-2,-7.260852E-2,-9.8228924E-2,-4.2543348E-2],"categories":[],"categories_nodes":[],"categories_segments":[],"categories_sizes":[],"default_left":[0,0,0,0,0,0,0,0,0,0,0,0,0,0,0,0,0,0,0,0,0,0,0,0,0,0,0,0,0,0,0,0,0,0,0,0,0,0,0,0,0,0,0,0,0,0,0,0,0,0,0,0,0,0,0],"id":2,"left_children":[1,3,5,7,9,11,13,15,17,19,21,23,25,27,-1,29,31,33,35,37,39,41,43,45,47,49,51,-1,53,-1,-1,-1,-1,-1,-1,-1,-1,-1,-1,-1,-1,-1,-1,-1,-1,-1,-1,-1,-1,-1,-1,-1,-1,-1,-1],"loss_changes":[8.85043E2,1.1567676E2,1.3955875E2,1.6093567E1,2.4681381E1,3.45578E1,2.322754E0,1.209137E0,1.2810974E1,1.3780504E1,1.4135155E1,1.989001E1,1.5929626E1,2.0354462E0,0E0,1.4827118E0,1.0721817E0,2.2793427E0,5.1686783E0,2.9122486E0,4.786951E0,4.181095E0,5.617258E0,8.534798E0,6.798586E0,7.7742844E0,9.958977E0,0E0,6.393137E-1,0E0,0E0,0E0,0E0,0E0,0E0,0E0,0E0,0E0,0E0,0E0,0E0,0E0,0E0,0E0,0E0,0E0,0E0,0E0,0E0,0E0,0E0,0E0,0E0,0E0,0E0],"parents":[2147483647,0,0,1,1,2,2,3,3,4,4,5,5,6,6,7,7,8,8,9,9,10,10,11,11,12,12,13,13,15,15,16,16,17,17,18,18,19,19,20,20,21,21,22,22,23,23,24,24,25,25,26,26,28,28],"right_children":[2,4,6,8,10,12,14,16,18,20,22,24,26,28,-1,30,32,34,36,38,40,42,44,46,48,50,52,-1,54,-1,-1,-1,-1,-1,-1,-1,-1,-1,-1,-1,-1,-1,-1,-1,-1,-1,-1,-1,-1,-1,-1,-1,-1,-1,-1],"split_conditions":[6.268319E-3,7.566772E-4,9.6834457E-1,8.409493E-6,1.1853963E-2,3.4573502E-5,9.957806E-1,2.027504E-4,9.0373076E-5,6.629611E-6,7.761923E-6,1.4934902E-2,8.609587E-3,7.86943E-1,-1.5367074E-1,7.001703E-1,3.851126E-6,1.1780845E-5,8.381701E-3,1.9502472E-6,1.9844766E-3,2.1061592E-3,8.9161135E-3,1.8740647E-6,1.3926652E-5,7.55928E-3,2.7988847E-2,-1.3354759E-1,3.7403568E-4,1.4323048E-1,7.032665E-2,1.2346722E-1,8.6094916E-2,4.7924787E-2,1.2376236E-1,3.497642E-2,8.022E-2,7.842782E-2,1.961188E-2,-8.252142E-2,-1.7884344E-2,9.640868E-2,5.386257E-2,3.7622277E-2,-1.0983582E-2,8.529895E-2,5.6919563E-3,-5.9109952E-2,-8.620332E-3,4.450855E-3,-1.1322831E-1,-3.4935903E-2,-7.260852E-2,-9.8228924E-2,-4.2543348E-2],"split_indices":[0,0,0,1,2,1,0,0,0,1,1,0,2,2,0,2,1,0,2,1,2,0,1,1,1,0,0,0,1,0,0,0,0,0,0,0,0,0,0,0,0,0,0,0,0,0,0,0,0,0,0,0,0,0,0],"split_type":[0,0,0,0,0,0,0,0,0,0,0,0,0,0,0,0,0,0,0,0,0,0,0,0,0,0,0,0,0,0,0,0,0,0,0,0,0,0,0,0,0,0,0,0,0,0,0,0,0,0,0,0,0,0,0],"sum_hessian":[1.6838605E3,8.815278E2,8.0233264E2,4.4321298E2,4.383148E2,5.7368176E2,2.2865091E2,1.7436505E2,2.688479E2,1.19720436E2,3.1859436E2,1.9481729E2,3.7886447E2,9.6219284E1,1.3243163E2,9.486387E1,7.950119E1,9.052838E1,1.7831953E2,3.5086327E1,8.463411E1,1.03432335E2,2.1516203E2,7.726336E1,1.1755393E2,8.741831E1,2.9144614E2,7.959085E1,1.6628435E1,8.895985E1,5.904019E0,5.6681675E1,2.2819511E1,5.9334474E0,8.459493E1,3.3290806E1,1.4502873E2,1.4319027E1,2.0767298E1,1.287184E1,7.1762276E1,5.3795765E1,4.963657E1,1.8842262E2,2.6739405E1,1.6351397E1,6.0911964E1,7.622503E1,4.1328903E1,5.9443827E0,8.147393E1,1.2879291E2,1.6265323E2,1.1244051E1,5.3843846E0],"tree_param":{"num_deleted":"0","num_feature":"4","num_nodes":"55","size_leaf_vector":"1"}},{"base_weights":[7.0251822E-3,-1.697614E0,1.7371E0,-1.7149607E0,-7.810283E-1,6.558169E-1,1.754312E0,-1.8175652E0,-1.6522993E-1,-7.932289E-3,-1.2676406E-1,9.59804E-2,2.6003433E-2,1.6990994E-1,1.909421E-1,-1.8390094E-1,-8.8142574E-2],"categories":[],"categories_nodes":[],"categories_segments":[],"categories_sizes":[],"default_left":[0,0,0,0,0,0,0,0,0,0,0,0,0,0,0,0,0],"id":3,"left_children":[1,3,5,7,9,11,13,15,-1,-1,-1,-1,-1,-1,-1,-1,-1],"loss_changes":[4.9251685E3,1.20354E1,1.42751465E1,2.2998047E0,5.8615236E0,1.505023E0,3.7373047E0,4.4555664E0,0E0,0E0,0E0,0E0,0E0,0E0,0E0,0E0,0E0],"parents":[2147483647,0,0,1,1,2,2,3,3,4,4,5,5,6,6,7,7],"right_children":[2,4,6,8,10,12,14,16,-1,-1,-1,-1,-1,-1,-1,-1,-1],"split_conditions":[2.1777329E-1,7.156138E-2,7.561382E-1,9.026504E-3,1.0660163E-2,5.849833E-3,6.268319E-3,3.69115E-2,-1.6522993E-1,-7.932289E-3,-1.2676406E-1,9.59804E-2,2.6003433E-2,1.6990994E-1,1.909421E-1,-1.8390094E-1,-8.8142574E-2],"split_indices":[3,3,3,0,0,0,0,3,0,0,0,0,0,0,0,0,0],"split_type":[0,0,0,0,0,0,0,0,0,0,0,0,0,0,0,0,0],"sum_hessian":[1.6680283E3,8.401998E2,8.278284E2,8.2373926E2,1.646062E1,1.3583702E1,8.142447E2,3.0170612E2,5.220331E2,7.2168207E0,9.2438E0,6.876795E0,6.7069077E0,6.093087E2,2.0493597E2,2.9400687E2,7.6992726E0],"tree_param":{"num_deleted":"0","num_feature":"4","num_nodes":"17","size_leaf_vector":"1"}},{"base_weights":[-6.545562E-3,-1.5824703E0,1.6197829E0,-1.6026516E-1,-7.4938095E-1,7.403018E-1,1.6333911E-1,8.972141E-3,-1.038261E0,1.3066414E-1,-6.8544038E-3,-5.386586E-2,-1.22277595E-1],"categories":[],"categories_nodes":[],"categories_segments":[],"categories_sizes":[],"default_left":[0,0,0,0,0,0,0,0,0,0,0,0,0],"id":4,"left_children":[1,3,5,-1,7,9,-1,-1,11,-1,-1,-1,-1],"loss_changes":[4.161707E3,1.2663818E1,8.354492E0,0E0,5.2763977E0,6.5050364E0,0E0,0E0,8.150196E-1,0E0,0E0,0E0,0E0],"parents":[2147483647,0,0,1,1,2,2,4,4,5,5,8,8],"right_children":[2,4,6,-1,8,10,-1,-1,12,-1,-1,-1,-1],"split_conditions":[2.1777329E-1,7.156138E-2,7.561382E-1,-1.6026516E-1,9.838716E-3,4.6873203E-5,1.6333911E-1,8.972141E-3,3.331828E-5,1.3066414E-1,-6.8544038E-3,-5.386586E-2,-1.22277595E-1],"split_indices":[3,3,3,0,2,1,0,0,1,0,0,0,0],"split_type":[0,0,0,0,0,0,0,0,0,0,0,0,0],"sum_hessian":[1.6217819E3,8.236681E2,7.981137E2,8.032851E2,2.0383005E1,1.3005097E1,7.8510864E2,5.3967195E0,1.4986285E1,7.287252E0,5.717845E0,5.0990744E0,9.887212E0],"tree_param":{"num_deleted":"0","num_feature":"4","num_nodes":"13","size_leaf_vector":"1"}},{"base_weights":[-2.040671E-3,-1.4814115E0,1.5228413E0,-1.502615E-1,-6.3432294E-1,1.9636957E-2,1.5349195E0,8.799492E-3,-1.1471244E-1,8.7139145E-2,1.5394588E0,1.4757004E-1,1.5988253E-1],"categories":[],"categories_nodes":[],"categories_segments":[],"categories_sizes":[],"default_left":[0,0,0,0,0,0,0,0,0,0,0,0,0],"id":5,"left_children":[1,3,5,-1,7,-1,9,-1,-1,-1,11,-1,-1],"loss_changes":[3.5243752E3,1.3290161E1,1.202417E1,0E0,7.9147234E0,0E0,9.5422363E-1,0E0,0E0,0E0,5.013428E-1,0E0,0E0],"parents":[2147483647,0,0,1,1,2,2,4,4,6,6,10,10],"right_children":[2,4,6,-1,8,-1,10,-1,-1,-1,12,-1,-1],"split_conditions":[2.1777329E-1,7.156138E-2,4.0418753E-1,-1.502615E-1,9.941491E-3,1.9636957E-2,7.561382E-1,8.799492E-3,-1.1471244E-1,8.7139145E-2,1.2235787E-3,1.4757004E-1,1.5988253E-1],"split_indices":[3,3,3,0,0,0,3,0,0,0,0,0,0],"split_type":[0,0,0,0,0,0,0,0,0,0,0,0,0],"sum_hessian":[1.560316E3,7.91991E2,7.6832495E2,7.718958E2,2.0095203E1,7.088541E0,7.612364E2,8.687141E0,1.1408062E1,6.4834847E0,7.547529E2,3.7638287E2,3.7837006E2],"tree_param":{"num_deleted":"0","num_feature":"4","num_nodes":"13","size_leaf_vector":"1"}},{"base_weights":[-5.0000544E-3,-1.4034328E0,1.4459056E0,-1.4270164E0,-4.8822087E-1,3.0779191E-3,1.4584385E-1,-1.436374E-1,-1.1347295E0,4.511184E-3,-9.991299E-2,-7.83992E-2,-1.3237539E-1],"categories":[],"categories_nodes":[],"categories_segments":[],"categories_sizes":[],"default_left":[0,0,0,0,0,0,0,0,0,0,0,0,0],"id":6,"left_children":[1,3,5,7,9,-1,-1,-1,11,-1,-1,-1,-1],"loss_changes":[2.9898845E3,1.5499023E1,1.2781982E1,3.6938477E-1,5.595543E0,0E0,0E0,0E0,7.8128433E-1,0E0,0E0,0E0,0E0],"parents":[2147483647,0,0,1,1,2,2,3,3,4,4,8,8],"right_children":[2,4,6,8,10,-1,-1,-1,12,-1,-1,-1,-1],"split_conditions":[2.1777329E-1,7.156138E-2,4.0418753E-1,3.2439057E-2,1.0660163E-2,3.0779191E-3,1.4584385E-1,-1.436374E-1,1.1270249E-2,4.511184E-3,-9.991299E-2,-7.83992E-2,-1.3237539E-1],"split_indices":[3,3,3,3,0,0,0,0,0,0,0,0,0],"split_type":[0,0,0,0,0,0,0,0,0,0,0,0,0],"sum_hessian":[1.4715797E3,7.493567E2,7.22223E2,7.299868E2,1.9369854E1,6.37046E0,7.1585254E2,7.0354865E2,2.6438196E1,9.923019E0,9.446835E0,1.1061323E1,1.5376873E1],"tree_param":{"num_deleted":"0","num_feature":"4","num_nodes":"13","size_leaf_vector":"1"}},{"base_weights":[5.297764E-3,-1.3518308E0,1.3839973E0,-1.3808821E-1,-8.903419E-1,6.4043534E-1,1.3974999E-1,-4.722753E-1,-1.1867261E-1,8.559715E-2,3.542954E-2,-5.886217E-3,-7.2559834E-1,-8.929105E-2,-4.0710136E-2],"categories":[],"categories_nodes":[],"categories_segments":[],"categories_sizes":[],"default_left":[0,0,0,0,0,0,0,0,0,0,0,0,0,0,0],"id":7,"left_children":[1,3,5,-1,7,9,-1,11,-1,-1,-1,-1,13,-1,-1],"loss_changes":[2.62068E3,8.233643E0,6.0806885E0,0E0,4.9679375E0,5.748315E-1,0E0,2.069633E0,0E0,0E0,0E0,0E0,2.9824162E-1,0E0,0E0],"parents":[2147483647,0,0,1,1,2,2,4,4,5,5,7,7,12,12],"right_children":[2,4,6,-1,8,10,-1,12,-1,-1,-1,-1,14,-1,-1],"split_conditions":[2.1777329E-1,3.2439057E-2,7.561382E-1,-1.3808821E-1,1.1270249E-2,3.742445E-3,1.3974999E-1,1.4046355E-2,-1.1867261E-1,8.559715E-2,3.542954E-2,-5.886217E-3,5.479625E-2,-8.929105E-2,-4.0710136E-2],"split_indices":[3,3,3,0,0,0,0,2,0,0,0,0,2,0,0],"split_type":[0,0,0,0,0,0,0,0,0,0,0,0,0,0,0],"sum_hessian":[1.3986299E3,7.0483856E2,6.937913E2,6.612217E2,4.3616863E1,1.3237852E1,6.8055347E2,1.9169985E1,2.4446878E1,6.4145904E0,6.8232613E0,7.751768E0,1.1418216E1,6.303409E0,5.1148067E0],"tree_param":{"num_deleted":"0","num_feature":"4","num_nodes":"15","size_leaf_vector":"1"}},{"base_weights":[-1.2125927E-2,-1.3004961E0,1.3317401E0,-1.31902E0,-6.031744E-1,3.1157196E-2,1.3432459E0,-1.3296716E-1,-1.0282629E0,1.4749909E-2,-9.4618237E-1,7.837053E-2,1.3473779E-1,-4.3629076E-2,-1.1417009E-1,-5.434643E-2,-1.1337047E-1],"categories":[],"categories_nodes":[],"categories_segments":[],"categories_sizes":[],"default_left":[0,0,0,0,0,0,0,0,0,0,0,0,0,0,0,0,0],"id":8,"left_children":[1,3,5,7,9,-1,11,-1,13,-1,15,-1,-1,-1,-1,-1,-1],"loss_changes":[2.2838198E3,7.9033203E0,7.15979E0,6.6186523E-1,5.1010804E0,0E0,4.1931152E-1,0E0,1.3529015E0,0E0,3.9284515E-1,0E0,0E0,0E0,0E0,0E0,0E0],"parents":[2147483647,0,0,1,1,2,2,3,3,4,4,6,6,8,8,10,10],"right_children":[2,4,6,8,10,-1,12,-1,14,-1,16,-1,-1,-1,-1,-1,-1],"split_conditions":[2.1777329E-1,7.156138E-2,4.0418753E-1,3.2439057E-2,1.2919317E-2,3.1157196E-2,7.561382E-1,-1.3296716E-1,5.859656E-6,1.4749909E-2,8.583146E-5,7.837053E-2,1.3473779E-1,-4.3629076E-2,-1.1417009E-1,-5.434643E-2,-1.1337047E-1],"split_indices":[3,3,3,3,2,0,3,0,1,0,1,0,0,0,0,0,0],"split_type":[0,0,0,0,0,0,0,0,0,0,0,0,0,0,0,0,0],"sum_hessian":[1.3170616E3,6.724312E2,6.446304E2,6.541622E2,1.8269009E1,7.502375E0,6.37128E2,6.2759766E2,2.6564508E1,5.908416E0,1.2360592E1,6.068111E0,6.3105994E2,5.051182E0,2.1513329E1,5.1654763E0,7.195116E0],"tree_param":{"num_deleted":"0","num_feature":"4","num_nodes":"17","size_leaf_vector":"1"}},{"base_weights":[2.883384E-4,-1.2522248E0,1.2733046E0,-1.2745346E-1,-8.59808E-1,5.417026E-2,1.2996301E-1,-3.3350858E-1,-1.09572016E-1,2.4782902E-2,-1.359126E-2,-6.273326E-2,5.2589504E-3],"categories":[],"categories_nodes":[],"categories_segments":[],"categories_sizes":[],"default_left":[0,0,0,0,0,0,0,0,0,0,0,0,0],"id":9,"left_children":[1,3,5,-1,7,9,-1,11,-1,-1,-1,-1,-1],"loss_changes":[1.9576454E3,4.3220825E0,1.9471802E1,0E0,4.149624E0,5.45871E-1,0E0,1.4729235E0,0E0,0E0,0E0,0E0,0E0],"parents":[2147483647,0,0,1,1,2,2,4,4,5,5,7,7],"right_children":[2,4,6,-1,8,10,-1,12,-1,-1,-1,-1,-1],"split_conditions":[1.5560144E-1,3.2439057E-2,4.0418753E-1,-1.2745346E-1,5.5266065E-3,7.974789E-3,1.2996301E-1,1.1862569E-3,-1.09572016E-1,2.4782902E-2,-1.359126E-2,-6.273326E-2,5.2589504E-3],"split_indices":[3,3,3,0,0,0,0,0,0,0,0,0,0],"split_type":[0,0,0,0,0,0,0,0,0,0,0,0,0],"sum_hessian":[1.2257721E3,6.1786993E2,6.079022E2,5.8250525E2,3.536469E1,1.2913912E1,5.949883E2,1.1692793E1,2.3671896E1,6.2463045E0,6.6676073E0,6.285029E0,5.4077635E0],"tree_param":{"num_deleted":"0","num_feature":"4","num_nodes":"13","size_leaf_vector":"1"}},{"base_weights":[4.123363E-3,-1.2045156E0,1.24356E0,-1.2324716E0,-2.6219526E-1,2.5606066E-1,1.2638421E-1,-1.2424781E-1,-9.6155137E-1,4.210343E-2,-6.3295263E-1,7.955558E-2,-4.0791254E-2,-6.3898966E-2,-1.120914E-1,-3.1410422E-2,-8.161075E-2],"categories":[],"categories_nodes":[],"categories_segments":[],"categories_sizes":[],"default_left":[0,0,0,0,0,0,0,0,0,0,0,0,0,0,0,0,0],"id":10,"left_children":[1,3,5,7,9,11,-1,-1,13,-1,15,-1,-1,-1,-1,-1,-1],"loss_changes":[1.70755E3,1.4879822E1,1.0947754E1,3.2385254E-1,4.800281E0,4.8307867E0,0E0,0E0,5.3683853E-1,0E0,4.4453096E-1,0E0,0E0,0E0,0E0,0E0,0E0],"parents":[2147483647,0,0,1,1,2,2,3,3,4,4,5,5,8,8,10,10],"right_children":[2,4,6,8,10,12,-1,-1,14,-1,16,-1,-1,-1,-1,-1,-1],"split_conditions":[2.1777329E-1,7.156138E-2,7.561382E-1,3.2439057E-2,1.2919317E-2,7.722207E-5,1.2638421E-1,-1.2424781E-1,4.287668E-2,4.210343E-2,8.583146E-5,7.955558E-2,-4.0791254E-2,-6.3898966E-2,-1.120914E-1,-3.1410422E-2,-8.161075E-2],"split_indices":[3,3,3,3,2,1,0,0,3,0,1,0,0,0,0,0,0],"split_type":[0,0,0,0,0,0,0,0,0,0,0,0,0,0,0,0,0],"sum_hessian":[1.1378628E3,5.76103E2,5.6175977E2,5.59205E2,1.6898E1,1.1579955E1,5.501798E2,5.358279E2,2.3377165E1,5.8964505E0,1.1001551E1,6.2795153E0,5.30044E0,9.386948E0,1.3990217E1,5.0044417E0,5.997109E0],"tree_param":{"num_deleted":"0","num_feature":"4","num_nodes":"17","size_leaf_vector":"1"}},{"base_weights":[-3.2846977E-3,-1.1832348E0,1.2138962E0,-1.202341E0,-5.3124785E-1,4.5532748E-1,1.2320107E-1,-1.2263087E-1,-1.0376534E0,-3.3576874E-4,-8.636349E-2,8.4229015E-2,-9.545276E-3,-3.2538213E-2,-1.1099948E0,-5.296286E-2,-1.15059964E-1],"categories":[],"categories_nodes":[],"categories_segments":[],"categories_sizes":[],"default_left":[0,0,0,0,0,0,0,0,0,0,0,0,0,0,0,0,0],"id":11,"left_children":[1,3,5,7,9,11,-1,-1,13,-1,-1,-1,-1,-1,15,-1,-1],"loss_changes":[1.5262726E3,6.083008E0,6.627136E0,7.937622E-1,3.0070462E0,3.0187411E0,0E0,0E0,3.4003906E0,0E0,0E0,0E0,0E0,0E0,9.425583E-1,0E0,0E0],"parents":[2147483647,0,0,1,1,2,2,3,3,4,4,5,5,8,8,14,14],"right_children":[2,4,6,8,10,12,-1,-1,14,-1,-1,-1,-1,-1,16,-1,-1],"split_conditions":[2.1777329E-1,7.156138E-2,7.561382E-1,1.4350797E-2,2.4553888E-2,7.722207E-5,1.2320107E-1,-1.2263087E-1,3.1072027E-6,-3.3576874E-4,-8.636349E-2,8.4229015E-2,-9.545276E-3,-3.2538213E-2,2.9575245E-3,-5.296286E-2,-1.15059964E-1],"split_indices":[3,3,3,3,2,1,0,0,1,0,0,0,0,0,2,0,0],"split_type":[0,0,0,0,0,0,0,0,0,0,0,0,0,0,0,0,0],"sum_hessian":[1.0607064E3,5.386045E2,5.221019E2,5.2245026E2,1.6154224E1,1.278653E1,5.093154E2,4.5044812E2,7.2002144E1,6.631814E0,9.522409E0,7.1992636E0,5.587266E0,7.1455035E0,6.4856636E1,5.1592264E0,5.969741E1],"tree_param":{"num_deleted":"0","num_feature":"4","num_nodes":"17","size_leaf_vector":"1"}},{"base_weights":[-1.078987E-2,-1.1545739E0,1.1706609E0,-1.17888466E-1,-7.025116E-1,2.1850765E-1,1.2041128E-1,3.843023E-3,-8.673671E-1,5.266349E-1,-4.5865342E-2,-1.0208371E0,-5.4806914E-2,2.8464248E-2,6.480608E-2,-6.4490385E-2,-1.2119333E-1],"categories":[],"categories_nodes":[],"categories_segments":[],"categories_sizes":[],"default_left":[0,0,0,0,0,0,0,0,0,0,0,0,0,0,0,0,0],"id":12,"left_children":[1,3,5,-1,7,9,-1,-1,11,13,-1,15,-1,-1,-1,-1,-1],"loss_changes":[1.3380782E3,4.700989E0,1.5251099E1,0E0,3.4718332E0,3.94585E0,0E0,0E0,5.709648E-1,1.877439E-1,0E0,2.5443268E-1,0E0,0E0,0E0,0E0,0E0],"parents":[2147483647,0,0,1,1,2,2,4,4,5,5,8,8,9,9,11,11],"right_children":[2,4,6,-1,8,10,-1,-1,12,14,-1,16,-1,-1,-1,-1,-1],"split_conditions":[1.5560144E-1,3.69115E-2,7.561382E-1,-1.17888466E-1,3.851126E-6,6.1300467E-4,1.2041128E-1,3.843023E-3,6.8110944E-4,3.340919E-2,-4.5865342E-2,4.9822273E-5,-5.4806914E-2,2.8464248E-2,6.480608E-2,-6.4490385E-2,-1.2119333E-1],"split_indices":[3,3,3,0,1,1,0,0,1,2,0,1,0,0,0,0,0],"split_type":[0,0,0,0,0,0,0,0,0,0,0,0,0,0,0,0,0],"sum_hessian":[9.8819727E2,5.0211414E2,4.8608313E2,4.7496396E2,2.715019E1,1.675354E1,4.693296E2,5.080919E0,2.2069271E1,1.1667014E1,5.086527E0,1.3421247E1,8.6480255E0,5.015561E0,6.651453E0,5.997482E0,7.423764E0],"tree_param":{"num_deleted":"0","num_feature":"4","num_nodes":"17","size_leaf_vector":"1"}},{"base_weights":[9.224244E-3,-1.1156404E0,1.1478307E0,-1.1493444E-1,-6.5265876E-1,2.836436E-1,1.17975056E-1,5.7088514E-3,-7.823635E-1,6.623405E-2,-3.600305E-2,-3.711776E-2,-9.592309E-2],"categories":[],"categories_nodes":[],"categories_segments":[],"categories_sizes":[],"default_left":[0,0,0,0,0,0,0,0,0,0,0,0,0],"id":13,"left_children":[1,3,5,-1,7,9,-1,-1,11,-1,-1,-1,-1],"loss_changes":[1.1744633E3,6.447937E0,1.2235962E1,0E0,3.1392365E0,4.5161934E0,0E0,0E0,1.7158756E0,0E0,0E0,0E0,0E0],"parents":[2147483647,0,0,1,1,2,2,4,4,5,5,8,8],"right_children":[2,4,6,-1,8,10,-1,-1,12,-1,-1,-1,-1],"split_conditions":[1.5560144E-1,3.2439057E-2,7.561382E-1,-1.1493444E-1,4.909897E-6,3.883292E-4,1.17975056E-1,5.7088514E-3,1.4046355E-2,6.623405E-2,-3.600305E-2,-3.711776E-2,-9.592309E-2],"split_indices":[3,3,3,0,1,1,0,0,2,0,0,0,0],"split_type":[0,0,0,0,0,0,0,0,0,0,0,0,0],"sum_hessian":[9.149921E2,4.6028372E2,4.547084E2,4.276681E2,3.2615616E1,1.654913E1,4.3815927E2,5.1259813E0,2.7489635E1,1.04009E1,6.148229E0,9.199957E0,1.8289679E1],"tree_param":{"num_deleted":"0","num_feature":"4","num_nodes":"13","size_leaf_vector":"1"}},{"base_weights":[2.7052094E-3,-1.0643481E0,1.1522254E0,-1.1114109E0,-1.7347687E-1,6.605727E-2,1.16082184E-1,-1.1287557E-1,-7.4075234E-1,1.8103106E-1,-5.593236E-1,-4.3743968E-1,-1.057772E-1,-2.6238924E-2,6.344763E-2,-3.0807976E-2,-7.232258E-2,-7.836295E-3,-7.0928216E-2],"categories":[],"categories_nodes":[],"categories_segments":[],"categories_sizes":[],"default_left":[0,0,0,0,0,0,0,0,0,0,0,0,0,0,0,0,0,0,0],"id":14,"left_children":[1,3,5,7,9,-1,-1,-1,11,13,15,17,-1,-1,-1,-1,-1,-1,-1],"loss_changes":[1.0509562E3,1.8436981E1,9.764404E-1,1.8760376E0,3.3130798E0,0E0,0E0,0E0,1.6303692E0,2.7788997E0,2.5025392E-1,1.196729E0,0E0,0E0,0E0,0E0,0E0,0E0,0E0],"parents":[2147483647,0,0,1,1,2,2,3,3,4,4,8,8,9,9,10,10,11,11],"right_children":[2,4,6,8,10,-1,-1,-1,12,14,16,18,-1,-1,-1,-1,-1,-1,-1],"split_conditions":[4.0418753E-1,7.156138E-2,8.927129E-1,3.2439057E-2,1.0660163E-2,6.605727E-2,1.16082184E-1,-1.1287557E-1,4.160934E-2,1.2639235E-3,2.1765994E-1,4.287668E-2,-1.057772E-1,-2.6238924E-2,6.344763E-2,-3.0807976E-2,-7.232258E-2,-7.836295E-3,-7.0928216E-2],"split_indices":[3,3,3,3,0,0,0,0,0,0,0,3,0,0,0,0,0,0,0],"split_type":[0,0,0,0,0,0,0,0,0,0,0,0,0,0,0,0,0,0,0],"sum_hessian":[8.5480493E2,4.4334225E2,4.1146268E2,4.2086154E2,2.2480703E1,8.408291E0,4.0305438E2,4.00094E2,2.076754E1,1.1992794E1,1.0487908E1,1.1829429E1,8.938112E0,6.2764497E0,5.7163444E0,5.2775965E0,5.210312E0,5.651986E0,6.177442E0],"tree_param":{"num_deleted":"0","num_feature":"4","num_nodes":"19","size_leaf_vector":"1"}},{"base_weights":[1.3682873E-3,-1.0614717E0,1.120842E0,-1.1035647E0,-5.977635E-1,3.6844063E-1,1.14184976E-1,-1.1201338E-1,-9.065894E-1,-1.6708902E-1,-9.907393E-2,5.8326073E-2,1.1304169E-2,-4.8788857E-2,-1.0157309E-1,1.9077545E-2,-4.1309193E-2],"categories":[],"categories_nodes":[],"categories_segments":[],"categories_sizes":[],"default_left":[0,0,0,0,0,0,0,0,0,0,0,0,0,0,0,0,0],"id":15,"left_children":[1,3,5,7,9,11,-1,-1,13,15,-1,-1,-1,-1,-1,-1,-1],"loss_changes":[9.2500415E2,7.124481E0,5.5639954E0,1.739502E-1,5.820716E0,5.793251E-1,0E0,0E0,1.0363121E0,1.6703722E0,0E0,0E0,0E0,0E0,0E0,0E0,0E0],"parents":[2147483647,0,0,1,1,2,2,3,3,4,4,5,5,8,8,9,9],"right_children":[2,4,6,8,10,12,-1,-1,14,16,-1,-1,-1,-1,-1,-1,-1],"split_conditions":[2.1777329E-1,3.2439057E-2,7.561382E-1,1.5084943E-2,1.1270249E-2,3.742445E-3,1.14184976E-1,-1.1201338E-1,4.38252E-3,1.4046355E-2,-9.907393E-2,5.8326073E-2,1.1304169E-2,-4.8788857E-2,-1.0157309E-1,1.9077545E-2,-4.1309193E-2],"split_indices":[3,3,3,3,0,0,0,0,0,2,0,0,0,0,0,0,0],"split_type":[0,0,0,0,0,0,0,0,0,0,0,0,0,0,0,0,0],"sum_hessian":[7.754311E2,3.978038E2,3.7762726E2,3.6343338E2,3.437044E1,1.0760862E1,3.668664E2,3.309114E2,3.2521965E1,1.7078629E1,1.7291813E1,5.147496E0,5.6133657E0,7.8556147E0,2.466635E1,7.048931E0,1.0029697E1],"tree_param":{"num_deleted":"0","num_feature":"4","num_nodes":"17","size_leaf_vector":"1"}},{"base_weights":[-5.3782016E-4,-1.0230016E0,1.115122E0,-1.0775166E0,-3.598233E-1,5.8651485E-2,1.1258656E-1,-1.1015642E-1,-8.8675994E-1,3.7117776E-2,-5.2076495E-1,-6.8017743E-3,-9.9439315E-2,-6.7114985E-1,3.420932E-3,-2.1219132E-2,-8.655466E-2],"categories":[],"categories_nodes":[],"categories_segments":[],"categories_sizes":[],"default_left":[0,0,0,0,0,0,0,0,0,0,0,0,0,0,0,0,0],"id":16,"left_children":[1,3,5,7,9,-1,-1,-1,11,-1,13,-1,-1,15,-1,-1,-1],"loss_changes":[8.2088666E2,1.3187561E1,1.2940063E0,6.125183E-1,3.7254932E0,0E0,0E0,0E0,3.8024101E0,0E0,2.1112947E0,0E0,0E0,1.5771656E0,0E0,0E0,0E0],"parents":[2147483647,0,0,1,1,2,2,3,3,4,4,8,8,10,10,13,13],"right_children":[2,4,6,8,10,-1,-1,-1,12,-1,14,-1,-1,16,-1,-1,-1],"split_conditions":[4.0418753E-1,4.9155075E-2,8.927129E-1,1.5084943E-2,5.811256E-3,5.8651485E-2,1.1258656E-1,-1.1015642E-1,3.851126E-6,3.7117776E-2,2.1777329E-1,-6.8017743E-3,-9.9439315E-2,2.5030134E-2,3.420932E-3,-2.1219132E-2,-8.655466E-2],"split_indices":[3,3,3,3,2,0,0,0,1,0,3,0,0,2,0,0,0],"split_type":[0,0,0,0,0,0,0,0,0,0,0,0,0,0,0,0,0],"sum_hessian":[7.176204E2,3.744933E2,3.4312714E2,3.4546997E2,2.9023304E1,7.9423084E0,3.351848E2,3.0255396E2,4.2916035E1,5.0012426E0,2.4022062E1,5.1759143E0,3.774012E1,1.8735773E1,5.2862883E0,6.1968756E0,1.2538898E1],"tree_param":{"num_deleted":"0","num_feature":"4","num_nodes":"17","size_leaf_vector":"1"}},{"base_weights":[-4.6131522E-3,-1.0277684E0,1.0537742E0,-1.0692136E0,-5.544662E-1,8.173687E-2,1.1080241E-1,-1.0915863E-1,-8.4174126E-1,1.0474527E-2,-8.5978985E-1,4.8953754E-1,-7.188911E-2,-5.589947E-1,-1.0003082E-1,-6.2362784E-1,-1.04369774E-1,2.5492504E-2,6.452758E-2,-2.7769892E-2,-7.43352E-2,-7.6996274E-2,-3.7348974E-2],"categories":[],"categories_nodes":[],"categories_segments":[],"categories_sizes":[],"default_left":[0,0,0,0,0,0,0,0,0,0,0,0,0,0,0,0,0,0,0,0,0,0,0],"id":17,"left_children":[1,3,5,7,9,11,-1,-1,13,-1,15,17,-1,19,-1,21,-1,-1,-1,-1,-1,-1,-1],"loss_changes":[7.160819E2,6.0026855E0,1.7049683E1,6.4901733E-1,5.9569206E0,6.3141756E0,0E0,0E0,8.735676E-1,0E0,2.1907902E-1,2.9930615E-1,0E0,5.065665E-1,0E0,1.2436485E-1,0E0,0E0,0E0,0E0,0E0,0E0,0E0],"parents":[2147483647,0,0,1,1,2,2,3,3,4,4,5,5,8,8,10,10,11,11,13,13,15,15],"right_children":[2,4,6,8,10,12,-1,-1,14,-1,16,18,-1,20,-1,22,-1,-1,-1,-1,-1,-1,-1],"split_conditions":[1.5560144E-1,3.2439057E-2,7.561382E-1,1.4350797E-2,3.742445E-3,6.1300467E-4,1.1080241E-1,-1.0915863E-1,1.8448344E-2,1.0474527E-2,1.1145208E-1,5.5266065E-3,-7.188911E-2,1.8724803E-2,-1.0003082E-1,1.5353516E-4,-1.04369774E-1,2.5492504E-2,6.452758E-2,-2.7769892E-2,-7.43352E-2,-7.6996274E-2,-3.7348974E-2],"split_indices":[3,3,3,3,0,1,0,0,0,0,0,0,0,3,0,1,0,0,0,0,0,0,0],"split_type":[0,0,0,0,0,0,0,0,0,0,0,0,0,0,0,0,0,0,0,0,0,0,0],"sum_hessian":[6.592663E2,3.3522723E2,3.2403906E2,3.0707843E2,2.8148802E1,1.7261297E1,3.0677777E2,2.7612225E2,3.0956186E1,9.118458E0,1.9030344E1,1.1693671E1,5.5676255E0,1.27487335E1,1.820745E1,1.0253928E1,8.776416E0,5.71746E0,5.976211E0,6.039643E0,6.7090907E0,5.1581664E0,5.095762E0],"tree_param":{"num_deleted":"0","num_feature":"4","num_nodes":"23","size_leaf_vector":"1"}},{"base_weights":[-8.99136E-3,-9.8338896E-1,1.0896293E0,-1.0576785E0,-4.1371033E-1,7.593711E-1,1.10142246E-1,-1.07765995E-1,-8.495129E-1,-1.6605185E-1,-8.95104E-1,4.755042E-2,9.3334384E-2,-2.7505824E-2,-9.55516E-2,-3.355334E-1,-6.5613235E-3,-1.1190212E-1,-4.774586E-2,-1.278747E-3,-5.612069E-2,-3.880581E-2,3.6420494E-2],"categories":[],"categories_nodes":[],"categories_segments":[],"categories_sizes":[],"default_left":[0,0,0,0,0,0,0,0,0,0,0,0,0,0,0,0,0,0,0,0,0,0,0],"id":18,"left_children":[1,3,5,7,9,11,-1,-1,13,15,17,-1,-1,-1,-1,19,21,-1,-1,-1,-1,-1,-1],"loss_changes":[6.609993E2,1.3411224E1,2.9403687E-1,2.859497E-1,4.547796E0,2.0939732E-1,0E0,0E0,1.5652504E0,7.3407966E-1,6.958351E-1,0E0,0E0,0E0,0E0,9.5321226E-1,2.2705102E0,0E0,0E0,0E0,0E0,0E0,0E0],"parents":[2147483647,0,0,1,1,2,2,3,3,4,4,5,5,8,8,9,9,10,10,15,15,16,16],"right_children":[2,4,6,8,10,12,-1,-1,14,16,18,-1,-1,-1,-1,20,22,-1,-1,-1,-1,-1,-1],"split_conditions":[4.0418753E-1,3.2439057E-2,9.4941616E-1,1.4350797E-2,5.9965704E-2,2.9827787E-2,1.10142246E-1,-1.07765995E-1,5.6899735E-3,7.156138E-2,1.076806E-1,4.755042E-2,9.3334384E-2,-2.7505824E-2,-9.55516E-2,4.287668E-2,2.703289E-3,-1.1190212E-1,-4.774586E-2,-1.278747E-3,-5.612069E-2,-3.880581E-2,3.6420494E-2],"split_indices":[3,3,3,3,0,2,0,0,2,3,2,0,0,0,0,3,0,0,0,0,0,0,0],"split_type":[0,0,0,0,0,0,0,0,0,0,0,0,0,0,0,0,0,0,0,0,0,0,0],"sum_hessian":[6.1547076E2,3.2623163E2,2.8923914E2,2.8783908E2,3.839256E1,1.2226798E1,2.7701233E2,2.5881848E2,2.9020601E1,2.62387E1,1.215386E1,6.0645833E0,6.1622148E0,5.080897E0,2.3939705E1,1.218578E1,1.4052921E1,6.8187084E0,5.3351517E0,5.4492383E0,6.7365413E0,6.9032464E0,7.149675E0],"tree_param":{"num_deleted":"0","num_feature":"4","num_nodes":"23","size_leaf_vector":"1"}},{"base_weights":[8.005424E-3,-9.60393E-1,1.08434595E-1,-1.0280524E0,-5.5112224E-2,-1.0668409E-1,-8.018889E-1,3.833657E-2,-4.271532E-1,-2.2809662E-2,-8.7063926E-1,-7.229888E-2,-8.596742E-3,-7.1219206E-2,-1.029613E-1],"categories":[],"categories_nodes":[],"categories_segments":[],"categories_sizes":[],"default_left":[0,0,0,0,0,0,0,0,0,0,0,0,0,0,0],"id":19,"left_children":[1,3,-1,5,7,-1,9,-1,11,-1,13,-1,-1,-1,-1],"loss_changes":[5.844784E2,1.8023193E1,0E0,1.5533752E0,3.684732E0,0E0,1.5460739E0,0E0,1.1641438E0,0E0,2.5259972E-1,0E0,0E0,0E0,0E0],"parents":[2147483647,0,0,1,1,3,3,4,4,6,6,8,8,10,10],"right_children":[2,4,-1,6,8,-1,10,-1,12,-1,14,-1,-1,-1,-1],"split_conditions":[4.0418753E-1,7.156138E-2,1.08434595E-1,1.4350797E-2,6.268319E-3,-1.0668409E-1,2.885051E-6,3.833657E-2,1.5560144E-1,-2.2809662E-2,8.96902E-2,-7.229888E-2,-8.596742E-3,-7.1219206E-2,-1.029613E-1],"split_indices":[3,3,0,3,0,0,1,0,3,0,0,0,0,0,0],"split_type":[0,0,0,0,0,0,0,0,0,0,0,0,0,0,0],"sum_hessian":[5.58745E2,2.9417734E2,2.645677E2,2.735937E2,2.0583633E1,2.3036719E2,4.3226513E1,9.43424E0,1.1149392E1,5.087109E0,3.8139404E1,5.3722086E0,5.777184E0,2.1845854E1,1.6293552E1],"tree_param":{"num_deleted":"0","num_feature":"4","num_nodes":"15","size_leaf_vector":"1"}},{"base_weights":[-1.6166912E-2,-9.7850806E-1,1.0171428E0,-1.0228641E-1,-5.335826E-1,1.6860244E-1,1.072281E-1,-2.324525E-1,-7.794572E-1,5.2649606E-2,-4.513836E-2,-4.8355494E-2,1.0675169E-2,-9.334911E-2,-5.017796E-2],"categories":[],"categories_nodes":[],"categories_segments":[],"categories_sizes":[],"default_left":[0,0,0,0,0,0,0,0,0,0,0,0,0,0,0],"id":20,"left_children":[1,3,5,-1,7,9,-1,11,13,-1,-1,-1,-1,-1,-1],"loss_changes":[5.1468787E2,4.7430115E0,1.1497192E1,0E0,1.772378E0,3.8801656E0,0E0,1.1831615E0,1.3468742E-1,0E0,0E0,0E0,0E0,0E0,0E0],"parents":[2147483647,0,0,1,1,2,2,4,4,5,5,7,7,8,8],"right_children":[2,4,6,-1,8,10,-1,12,14,-1,-1,-1,-1,-1,-1],"split_conditions":[1.5560144E-1,3.2439057E-2,7.561382E-1,-1.0228641E-1,2.5030134E-2,3.883292E-4,1.072281E-1,1.0872801E-2,2.5916076E-1,5.2649606E-2,-4.513836E-2,-4.8355494E-2,1.0675169E-2,-9.334911E-2,-5.017796E-2],"split_indices":[3,3,3,0,2,1,0,2,2,0,0,0,0,0,0],"split_type":[0,0,0,0,0,0,0,0,0,0,0,0,0,0,0],"sum_hessian":[5.1558734E2,2.669887E2,2.4859866E2,2.4160352E2,2.5385176E1,1.5415923E1,2.3318274E2,1.2284898E1,1.3100278E1,9.869463E0,5.5464606E0,6.814658E0,5.470239E0,6.9070215E0,6.193256E0],"tree_param":{"num_deleted":"0","num_feature":"4","num_nodes":"15","size_leaf_vector":"1"}},{"base_weights":[-3.6559417E-3,3.4894624E-1,-3.8944772E-1,6.051714E-1,1.4649315E-1,-2.3277792E-1,-8.2034266E-1,7.589579E-1,4.985509E-1,2.882836E-1,3.7381705E-2,-5.284909E-1,-1.7427278E-1,-5.513562E-1,-8.866302E-2,4.4588834E-2,8.037839E-1,5.35952E-1,2.285057E-2,5.5268794E-2,2.2073428E-1,-2.5952158E-2,6.5370575E-2,-3.307097E-1,-7.529682E-2,-1.3855574E-1,-5.7081815E-2,-2.7624672E-2,-6.672999E-2,8.6996555E-2,5.0323553E-2,6.553875E-2,4.5796134E-2,3.2969143E-3,3.0939562E-2,1.0547563E-2,-6.9423043E-3,-1.5530209E-2,-5.138693E-2,2.3341505E-2,-1.6186439E-2],"categories":[],"categories_nodes":[],"categories_segments":[],"categories_sizes":[],"default_left":[0,0,0,0,0,0,0,0,0,0,0,0,0,0,0,0,0,0,0,0,0,0,0,0,0,0,0,0,0,0,0,0,0,0,0,0,0,0,0,0,0],"id":21,"left_children":[1,3,5,7,9,11,13,15,17,19,21,23,25,27,-1,-1,29,31,-1,-1,33,-1,35,37,-1,39,-1,-1,-1,-1,-1,-1,-1,-1,-1,-1,-1,-1,-1,-1,-1],"loss_changes":[6.5002846E1,1.286269E1,1.5213249E1,1.4233246E0,2.1673775E0,2.8271484E0,5.889511E-1,2.461052E-1,5.623741E-1,9.68863E-1,6.876856E-1,9.664779E-1,1.9371886E0,2.8121853E-1,0E0,0E0,2.869072E-1,2.4770546E-1,0E0,0E0,8.273957E-1,0E0,4.1037667E-1,4.4507694E-1,0E0,1.1815095E0,0E0,0E0,0E0,0E0,0E0,0E0,0E0,0E0,0E0,0E0,0E0,0E0,0E0,0E0,0E0],"parents":[2147483647,0,0,1,1,2,2,3,3,4,4,5,5,6,6,7,7,8,8,9,9,10,10,11,11,12,12,13,13,16,16,17,17,20,20,22,22,23,23,25,25],"right_children":[2,4,6,8,10,12,14,16,18,20,22,24,26,28,-1,-1,30,32,-1,-1,34,-1,36,38,-1,40,-1,-1,-1,-1,-1,-1,-1,-1,-1,-1,-1,-1,-1,-1,-1],"split_conditions":[6.268319E-3,6.181284E-4,9.6834457E-1,8.660489E-6,1.669378E-5,6.096915E-3,9.8874366E-1,7.233668E-3,5.507001E-3,9.5339556E-4,3.6398114E-3,4.4305675E-2,4.9231153E-2,9.435386E-5,-8.866302E-2,4.4588834E-2,3.5061486E-4,9.0373076E-5,2.285057E-2,5.5268794E-2,1.3794106E-2,-2.5952158E-2,3.988249E-3,2.0059943E-4,-7.529682E-2,1.5695989E-6,-5.7081815E-2,-2.7624672E-2,-6.672999E-2,8.6996555E-2,5.0323553E-2,6.553875E-2,4.5796134E-2,3.2969143E-3,3.0939562E-2,1.0547563E-2,-6.9423043E-3,-1.5530209E-2,-5.138693E-2,2.3341505E-2,-1.6186439E-2],"split_indices":[0,0,0,1,1,2,0,2,1,0,2,0,1,1,0,0,0,0,0,0,2,0,0,1,0,1,0,0,0,0,0,0,0,0,0,0,0,0,0,0,0],"split_type":[0,0,0,0,0,0,0,0,0,0,0,0,0,0,0,0,0,0,0,0,0,0,0,0,0,0,0,0,0,0,0,0,0,0,0,0,0,0,0,0,0],"sum_hessian":[4.7585403E2,2.4867134E2,2.271827E2,1.08881485E2,1.3978986E2,1.6773564E2,5.9447052E1,4.207513E1,6.680635E1,6.007727E1,7.971258E1,2.6377567E1,1.4135808E2,1.3595573E1,4.585148E1,6.6409645E0,3.5434166E1,5.7814415E1,8.991936E0,1.0763668E1,4.9313602E1,6.1544504E0,7.355813E1,1.5337411E1,1.1040156E1,1.3091582E2,1.0442249E1,5.033872E0,8.561702E0,2.748688E1,7.947288E0,1.9914215E1,3.79002E1,1.6256908E1,3.3056694E1,5.6858547E1,1.6699583E1,8.778426E0,6.5589848E0,7.188243E0,1.2372758E2],"tree_param":{"num_deleted":"0","num_feature":"4","num_nodes":"41","size_leaf_vector":"1"}},{"base_weights":[2.0579565E-3,-9.4767445E-1,1.0109068E0,-1.0016184E0,-4.2674097E-1,7.7338144E-3,1.0532619E0,-1.0267075E-1,-7.609217E-1,2.5333527E-2,-6.1731535E-1,1.0655357E-1,4.6988513E-2,-4.449554E-2,-8.600933E-2,-9.0224266E-2,-1.846504E-2],"categories":[],"categories_nodes":[],"categories_segments":[],"categories_sizes":[],"default_left":[0,0,0,0,0,0,0,0,0,0,0,0,0,0,0,0,0],"id":22,"left_children":[1,3,5,7,9,-1,11,-1,13,-1,15,-1,-1,-1,-1,-1,-1],"loss_changes":[4.4701187E2,6.3256683E0,8.863998E0,5.292969E-1,3.3047905E0,0E0,1.0482941E0,0E0,3.8026524E-1,0E0,2.2084732E0,0E0,0E0,0E0,0E0,0E0,0E0],"parents":[2147483647,0,0,1,1,2,2,3,3,4,4,6,6,8,8,10,10],"right_children":[2,4,6,8,10,-1,12,-1,14,-1,16,-1,-1,-1,-1,-1,-1],"split_conditions":[1.5560144E-1,3.2439057E-2,4.0418753E-1,1.4350797E-2,5.859656E-6,7.7338144E-3,1.2820435E-1,-1.0267075E-1,1.2919317E-2,2.5333527E-2,4.5700284E-4,1.0655357E-1,4.6988513E-2,-4.449554E-2,-8.600933E-2,-9.0224266E-2,-1.846504E-2],"split_indices":[3,3,3,3,1,0,1,0,2,0,1,0,0,0,0,0,0],"split_type":[0,0,0,0,0,0,0,0,0,0,0,0,0,0,0,0,0],"sum_hessian":[4.6454318E2,2.3931354E2,2.2522964E2,2.1602127E2,2.3292274E1,9.897628E0,2.1533202E2,1.9267241E2,2.3348866E1,5.0262985E0,1.8265976E1,2.1008551E2,5.2464952E0,6.888485E0,1.646038E1,1.0358905E1,7.9070706E0],"tree_param":{"num_deleted":"0","num_feature":"4","num_nodes":"17","size_leaf_vector":"1"}},{"base_weights":[-2.7122719E-3,-9.2424023E-1,1.0229288E0,-1.0206214E-1,-5.57054E-1,3.4625039E-1,1.0576222E-1,2.1064004E-2,-6.495752E-1,7.481914E-2,-1.43683255E-2,-7.82237E-1,-2.565796E-1,-3.8165353E-2,-8.440872E-2,-1.6908555E-3,-4.136197E-2],"categories":[],"categories_nodes":[],"categories_segments":[],"categories_sizes":[],"default_left":[0,0,0,0,0,0,0,0,0,0,0,0,0,0,0,0,0],"id":23,"left_children":[1,3,5,-1,7,9,-1,-1,11,-1,-1,13,15,-1,-1,-1,-1],"loss_changes":[4.0880908E2,7.494217E0,4.4394684E0,0E0,3.6576586E0,2.366229E0,0E0,0E0,2.1184387E0,0E0,0E0,4.8973465E-1,4.7155154E-1,0E0,0E0,0E0,0E0],"parents":[2147483647,0,0,1,1,2,2,4,4,5,5,8,8,11,11,12,12],"right_children":[2,4,6,-1,8,10,-1,-1,12,-1,-1,14,16,-1,-1,-1,-1],"split_conditions":[2.1777329E-1,1.4350797E-2,8.927129E-1,-1.0206214E-1,3.2474976E-3,7.131019E-5,1.0576222E-1,2.1064004E-2,7.156138E-2,7.481914E-2,-1.43683255E-2,3.851126E-6,2.4553888E-2,-3.8165353E-2,-8.440872E-2,-1.6908555E-3,-4.136197E-2],"split_indices":[3,3,3,0,2,1,0,0,3,0,0,1,2,0,0,0,0],"split_type":[0,0,0,0,0,0,0,0,0,0,0,0,0,0,0,0,0],"sum_hessian":[4.3053006E2,2.268271E2,2.0370294E2,1.7825745E2,4.8569664E1,1.0470015E1,1.9323293E2,5.086639E0,4.3483025E1,5.4619274E0,5.0080876E0,3.1768593E1,1.1714431E1,5.208099E0,2.6560493E1,5.075692E0,6.638738E0],"tree_param":{"num_deleted":"0","num_feature":"4","num_nodes":"17","size_leaf_vector":"1"}},{"base_weights":[-1.4254562E-2,-8.7715644E-1,1.04993306E-1,-9.664176E-1,-1.06914684E-1,-1.0087576E-1,-7.3595387E-1,1.379869E-1,-2.9615396E-1,-8.706399E-3,-8.5538626E-2,-1.9554859E-2,4.524189E-2,-1.2375313E-2,-4.8447177E-2],"categories":[],"categories_nodes":[],"categories_segments":[],"categories_sizes":[],"default_left":[0,0,0,0,0,0,0,0,0,0,0,0,0,0,0],"id":24,"left_children":[1,3,-1,5,7,-1,9,11,13,-1,-1,-1,-1,-1,-1],"loss_changes":[3.6398993E2,1.4945328E1,0E0,1.1703949E0,1.1464552E0,0E0,2.569891E0,1.2505482E0,3.8726497E-1,0E0,0E0,0E0,0E0,0E0,0E0],"parents":[2147483647,0,0,1,1,3,3,4,4,6,6,7,7,8,8],"right_children":[2,4,-1,6,8,-1,10,12,14,-1,-1,-1,-1,-1,-1],"split_conditions":[7.561382E-1,7.156138E-2,1.04993306E-1,1.4350797E-2,3.742445E-3,-1.0087576E-1,9.129028E-4,7.566772E-4,1.9006392E-1,-8.706399E-3,-8.5538626E-2,-1.9554859E-2,4.524189E-2,-1.2375313E-2,-4.8447177E-2],"split_indices":[3,3,0,3,0,0,0,0,2,0,0,0,0,0,0],"split_type":[0,0,0,0,0,0,0,0,0,0,0,0,0,0,0],"sum_hessian":[3.9437524E2,2.1788104E2,1.7649419E2,1.950254E2,2.2855644E1,1.619039E2,3.312151E1,1.0080687E1,1.2774958E1,5.417357E0,2.7704153E1,5.075214E0,5.005472E0,7.5344687E0,5.2404895E0],"tree_param":{"num_deleted":"0","num_feature":"4","num_nodes":"15","size_leaf_vector":"1"}},{"base_weights":[-3.3776357E-3,2.9886115E-1,-3.3459127E-1,5.228957E-1,1.2517594E-1,-1.8540965E-1,-7.632206E-1,5.6427145E-1,8.778521E-3,1.9934958E-1,-1.470217E-2,2.2259844E-2,-2.1743631E-1,-5.105708E-2,-8.271879E-2,6.789307E-2,4.5955706E-1,1.6318052E-1,4.1888606E-2,-1.732504E-2,2.7164025E-2,-6.622239E-2,-1.781721E-1,5.5952497E-2,3.2664355E-2,2.1816015E-2,-3.7095489E-3,8.850013E-3,-1.1790974E-2,-1.041801E-2,-3.7712324E-2],"categories":[],"categories_nodes":[],"categories_segments":[],"categories_sizes":[],"default_left":[0,0,0,0,0,0,0,0,0,0,0,0,0,0,0,0,0,0,0,0,0,0,0,0,0,0,0,0,0,0,0],"id":25,"left_children":[1,3,5,7,9,11,13,15,-1,17,19,-1,21,-1,-1,-1,23,25,-1,-1,27,-1,29,-1,-1,-1,-1,-1,-1,-1,-1],"loss_changes":[3.6553547E1,7.3639927E0,1.0998678E1,1.445898E0,1.1324475E0,1.754436E0,2.994213E-1,5.965061E-1,0E0,4.9708724E-1,2.6129654E-1,0E0,2.0050097E0,0E0,0E0,0E0,3.83852E-1,6.993253E-1,0E0,0E0,2.902425E-1,0E0,1.6251936E0,0E0,0E0,0E0,0E0,0E0,0E0,0E0,0E0],"parents":[2147483647,0,0,1,1,2,2,3,3,4,4,5,5,6,6,7,7,9,9,10,10,12,12,16,16,17,17,20,20,22,22],"right_children":[2,4,6,8,10,12,14,16,-1,18,20,-1,22,-1,-1,-1,24,26,-1,-1,28,-1,30,-1,-1,-1,-1,-1,-1,-1,-1],"split_conditions":[6.268319E-3,6.181284E-4,9.6834457E-1,5.507001E-3,1.0878377E-4,2.2586694E-6,9.8874366E-1,1.0845129E-5,8.778521E-3,4.8583333E-5,2.1103812E-4,2.2259844E-2,2.7050697E-3,-5.105708E-2,-8.271879E-2,6.789307E-2,1.7629574E-4,1.9318257E-5,4.1888606E-2,-1.732504E-2,3.742445E-3,-6.622239E-2,1.1145208E-1,5.5952497E-2,3.2664355E-2,2.1816015E-2,-3.7095489E-3,8.850013E-3,-1.1790974E-2,-1.041801E-2,-3.7712324E-2],"split_indices":[0,0,0,1,1,1,0,1,0,1,1,0,2,0,0,0,0,1,0,0,0,0,0,0,0,0,0,0,0,0,0],"split_type":[0,0,0,0,0,0,0,0,0,0,0,0,0,0,0,0,0,0,0,0,0,0,0,0,0,0,0,0,0,0,0],"sum_hessian":[3.631509E2,1.8993199E2,1.732189E2,8.206575E1,1.0786625E2,1.2955922E2,4.3659676E1,7.4668495E1,7.397255E0,7.021038E1,3.7655872E1,8.9965105E0,1.2056271E2,1.0635338E1,3.3024338E1,3.302423E1,4.164426E1,6.177596E1,8.43442E0,7.210678E0,3.0445194E1,8.492563E0,1.1207015E2,2.1935947E1,1.9708313E1,4.8399937E1,1.33760195E1,2.167228E1,8.772913E0,8.279972E1,2.9270432E1],"tree_param":{"num_deleted":"0","num_feature":"4","num_nodes":"31","size_leaf_vector":"1"}},{"base_weights":[-2.3486651E-3,-8.360178E-1,1.0184025E0,-9.641071E-1,-1.6700844E-1,3.8772345E-2,1.04817845E-1,-6.5193766E-1,-9.885151E-2,1.4477432E-1,-6.089415E-1,-9.350733E-2,-2.0388912E-2,5.0425798E-2,-9.090901E-2,-8.2719035E-2,-2.8167645E-2,-4.0144365E-2,2.9554138E-2],"categories":[],"categories_nodes":[],"categories_segments":[],"categories_sizes":[],"default_left":[0,0,0,0,0,0,0,0,0,0,0,0,0,0,0,0,0,0,0],"id":26,"left_children":[1,3,5,7,9,-1,-1,11,-1,13,15,-1,-1,-1,17,-1,-1,-1,-1],"loss_changes":[3.0757285E2,1.6887543E1,2.6449738E0,6.262512E-1,4.659877E0,0E0,0E0,1.716135E0,0E0,1.7625599E0,7.610369E-1,0E0,0E0,0E0,1.6890258E0,0E0,0E0,0E0,0E0],"parents":[2147483647,0,0,1,1,2,2,3,3,4,4,7,7,9,9,10,10,14,14],"right_children":[2,4,6,8,10,-1,-1,12,-1,14,16,-1,-1,-1,18,-1,-1,-1,-1],"split_conditions":[4.0418753E-1,3.2439057E-2,9.4941616E-1,2.8383257E-3,1.1270249E-2,3.8772345E-2,1.04817845E-1,4.326668E-3,-9.885151E-2,1.4046355E-2,1.0292498E-1,-9.350733E-2,-2.0388912E-2,5.0425798E-2,6.778068E-2,-8.2719035E-2,-2.8167645E-2,-4.0144365E-2,2.9554138E-2],"split_indices":[3,3,3,2,0,0,0,3,0,2,3,0,0,0,2,0,0,0,0],"split_type":[0,0,0,0,0,0,0,0,0,0,0,0,0,0,0,0,0,0,0],"sum_hessian":[3.5943793E2,1.9794942E2,1.6148851E2,1.6576985E2,3.2179577E1,7.9126697E0,1.5357584E2,1.4030811E1,1.5173903E2,1.9262403E1,1.2917173E1,7.9315996E0,6.099212E0,7.1765614E0,1.2085842E1,6.8328505E0,6.0843234E0,6.679606E0,5.406236E0],"tree_param":{"num_deleted":"0","num_feature":"4","num_nodes":"19","size_leaf_vector":"1"}},{"base_weights":[-1.5772037E-2,3.1471357E-1,-2.9817545E-1,5.163974E-1,1.2737495E-1,-1.6965544E-1,-7.505359E-1,7.544778E-2,3.9148152E-1,2.0445827E-1,-2.7983207E-2,-9.3505405E-2,-3.9952427E-1,-7.952241E-2,-4.609509E-2,4.8740917E-1,2.7510193E-1,4.4138253E-2,2.6898006E-1,-2.4869828E-2,6.207757E-2,-1.0750356E-2,-2.612155E-1,-6.887029E-2,-2.5419638E-1,6.325432E-2,3.0838547E-2,3.3357717E-2,8.226789E-3,2.4722667E-2,-6.7771794E-3,3.200475E-2,5.887089E-4,-1.3196463E-2,1.7201852E-2,2.9993916E-2,-7.147384E-3,-6.569141E-2,-1.7514518E-2,-1.5724724E-2,-4.547627E-2],"categories":[],"categories_nodes":[],"categories_segments":[],"categories_sizes":[],"default_left":[0,0,0,0,0,0,0,0,0,0,0,0,0,0,0,0,0,0,0,0,0,0,0,0,0,0,0,0,0,0,0,0,0,0,0,0,0,0,0,0,0],"id":27,"left_children":[1,3,5,7,9,11,13,-1,15,17,19,21,23,-1,-1,25,27,29,31,-1,33,35,37,-1,39,-1,-1,-1,-1,-1,-1,-1,-1,-1,-1,-1,-1,-1,-1,-1,-1],"loss_changes":[3.1298183E1,5.7733593E0,1.0383905E1,1.9082165E0,9.811088E-1,2.44986E0,1.4732742E-1,0E0,4.316554E-1,5.524883E-1,5.69828E-1,1.4966323E0,1.2980304E0,0E0,0E0,4.9301958E-1,2.566303E-1,3.9977723E-1,5.1814747E-1,0E0,4.6233144E-1,1.4059191E0,1.0992234E0,0E0,4.1292584E-1,0E0,0E0,0E0,0E0,0E0,0E0,0E0,0E0,0E0,0E0,0E0,0E0,0E0,0E0,0E0,0E0],"parents":[2147483647,0,0,1,1,2,2,3,3,4,4,5,5,6,6,8,8,9,9,10,10,11,11,12,12,15,15,16,16,17,17,18,18,20,20,21,21,22,22,24,24],"right_children":[2,4,6,8,10,12,14,-1,16,18,20,22,24,-1,-1,26,28,30,32,-1,34,36,38,-1,40,-1,-1,-1,-1,-1,-1,-1,-1,-1,-1,-1,-1,-1,-1,-1,-1],"split_conditions":[3.988249E-3,5.982022E-4,9.6834457E-1,6.1789724E-6,1.0501858E-4,1.9234255E-3,7.86943E-1,7.544778E-2,1.7629574E-4,1.0872801E-2,1.1853963E-2,4.160934E-2,1.5578506E-2,-7.952241E-2,-4.609509E-2,3.8930204E-2,7.548904E-4,3.7787957E-3,3.5966885E-5,-2.4869828E-2,1.3349316E-3,3.1072027E-6,5.811256E-3,-6.887029E-2,4.9231153E-2,6.325432E-2,3.0838547E-2,3.3357717E-2,8.226789E-3,2.4722667E-2,-6.7771794E-3,3.200475E-2,5.887089E-4,-1.3196463E-2,1.7201852E-2,2.9993916E-2,-7.147384E-3,-6.569141E-2,-1.7514518E-2,-1.5724724E-2,-4.547627E-2],"split_indices":[0,0,0,1,1,1,2,0,0,2,2,0,2,0,0,2,1,2,1,0,0,1,2,0,1,0,0,0,0,0,0,0,0,0,0,0,0,0,0,0,0],"split_type":[0,0,0,0,0,0,0,0,0,0,0,0,0,0,0,0,0,0,0,0,0,0,0,0,0,0,0,0,0,0,0,0,0,0,0,0,0,0,0,0,0],"sum_hessian":[3.3334326E2,1.5354324E2,1.7980003E2,7.30948E1,8.044844E1,1.4109003E2,3.871E1,2.3419357E1,4.967544E1,5.355852E1,2.6889917E1,1.0703776E2,3.405227E1,3.2022305E1,6.6876965E0,2.5482775E1,2.4192667E1,1.5852712E1,3.770581E1,7.2820635E0,1.9607855E1,7.2384415E1,3.4653343E1,1.0138788E1,2.3913483E1,1.2674392E1,1.2808383E1,1.8003422E1,6.1892447E0,5.202441E0,1.065027E1,3.1395359E1,6.310451E0,7.019081E0,1.2588773E1,1.1190288E1,6.119413E1,5.0060954E0,2.9647245E1,1.7323648E1,6.589834E0],"tree_param":{"num_deleted":"0","num_feature":"4","num_nodes":"41","size_leaf_vector":"1"}},{"base_weights":[-1.3933574E-2,-8.41079E-1,1.0288763E-1,-1.00735E-1,-3.9670837E-1,-1.4153202E-1,-6.892988E-1,2.0130509E-1,-3.8342422E-1,-9.028238E-2,-1.8906902E-4,3.1987928E-2,2.5359213E-3,-1.6246032E-2,-6.746643E-2],"categories":[],"categories_nodes":[],"categories_segments":[],"categories_sizes":[],"default_left":[0,0,0,0,0,0,0,0,0,0,0,0,0,0,0],"id":28,"left_children":[1,3,-1,-1,5,7,9,11,13,-1,-1,-1,-1,-1,-1],"loss_changes":[2.813526E2,1.3039719E1,0E0,0E0,3.7234344E0,2.4485326E0,3.45969E0,2.5235504E-1,9.9147296E-1,0E0,0E0,0E0,0E0,0E0,0E0],"parents":[2147483647,0,0,1,1,4,4,5,5,6,6,7,7,8,8],"right_children":[2,4,-1,-1,6,8,10,12,14,-1,-1,-1,-1,-1,-1],"split_conditions":[7.561382E-1,1.5084943E-2,1.0288763E-1,-1.00735E-1,1.0918511E-2,1.9318257E-5,1.5560144E-1,3.220154E-6,3.742445E-3,-9.028238E-2,-1.8906902E-4,3.1987928E-2,2.5359213E-3,-1.6246032E-2,-6.746643E-2],"split_indices":[3,3,0,0,0,1,3,1,0,0,0,0,0,0,0],"split_type":[0,0,0,0,0,0,0,0,0,0,0,0,0,0,0],"sum_hessian":[3.241817E2,1.808929E2,1.4328882E2,1.307158E2,5.017709E1,2.7594698E1,2.2582392E1,1.1484851E1,1.6109846E1,1.6991163E1,5.5912266E0,6.3723297E0,5.1125216E0,1.0045867E1,6.063979E0],"tree_param":{"num_deleted":"0","num_feature":"4","num_nodes":"15","size_leaf_vector":"1"}},{"base_weights":[-1.4208149E-2,1.24482535E-1,-5.664417E-1,3.9658442E-1,-1.3394787E-2,-3.773256E-1,-8.039132E-2,6.1005052E-2,2.3344521E-1,1.1352674E-1,-1.1974916E-1,-2.8583556E-1,-5.941047E-2,4.2170563E-1,8.972625E-2,7.746052E-2,4.9958304E-2,1.2125946E-2,-2.1593551E-1,-4.0208396E-2,-2.224698E-1,5.383859E-2,2.7526472E-2,-2.2916952E-2,1.7469076E-2,1.5484534E-2,-2.0072887E-2,-8.6116595E-3,1.5077606E-2,-1.6904322E-2,-5.2210063E-2,-2.8531179E-2,-5.600163E-3],"categories":[],"categories_nodes":[],"categories_segments":[],"categories_sizes":[],"default_left":[0,0,0,0,0,0,0,0,0,0,0,0,0,0,0,0,0,0,0,0,0,0,0,0,0,0,0,0,0,0,0,0,0],"id":29,"left_children":[1,3,5,7,9,11,-1,-1,13,15,17,19,-1,21,23,25,-1,27,29,-1,31,-1,-1,-1,-1,-1,-1,-1,-1,-1,-1,-1,-1],"loss_changes":[2.2904797E1,8.975998E0,2.3924122E0,2.6591196E0,2.1688602E0,5.3028584E-1,0E0,0E0,1.2397316E0,9.8200345E-1,1.110716E0,1.075964E-1,0E0,1.9646358E-1,7.999657E-1,1.4998577E0,0E0,5.2774197E-1,6.3772583E-1,0E0,1.8855691E-1,0E0,0E0,0E0,0E0,0E0,0E0,0E0,0E0,0E0,0E0,0E0,0E0],"parents":[2147483647,0,0,1,1,2,2,3,3,4,4,5,5,8,8,9,9,10,10,11,11,13,13,14,14,15,15,17,17,18,18,20,20],"right_children":[2,4,6,8,10,12,-1,-1,14,16,18,20,-1,22,24,26,-1,28,30,-1,32,-1,-1,-1,-1,-1,-1,-1,-1,-1,-1,-1,-1],"split_conditions":[1.1145208E-1,9.5339556E-4,9.8874366E-1,1.2031084E-5,3.8387956E-5,4.809664E-3,-8.039132E-2,6.1005052E-2,1.7629574E-4,3.0635452E-5,6.4435215E-3,2.0783745E-2,-5.941047E-2,3.8930204E-2,9.079784E-3,1.553022E-2,4.9958304E-2,3.205139E-3,5.498289E-2,-4.0208396E-2,4.5700284E-4,5.383859E-2,2.7526472E-2,-2.2916952E-2,1.7469076E-2,1.5484534E-2,-2.0072887E-2,-8.6116595E-3,1.5077606E-2,-1.6904322E-2,-5.2210063E-2,-2.8531179E-2,-5.600163E-3],"split_indices":[0,0,0,1,1,1,0,0,0,1,0,2,0,2,2,0,0,0,1,0,1,0,0,0,0,0,0,0,0,0,0,0,0],"split_type":[0,0,0,0,0,0,0,0,0,0,0,0,0,0,0,0,0,0,0,0,0,0,0,0,0,0,0,0,0,0,0,0,0],"sum_hessian":[2.9713797E2,2.3811194E2,5.902603E1,7.9446785E1,1.5866516E2,3.4299625E1,2.4726408E1,3.3228355E1,4.621843E1,7.230734E1,8.635782E1,2.5750412E1,8.5492115E0,1.9171307E1,2.7047125E1,6.7227455E1,5.0798893E0,3.6790535E1,4.956728E1,7.198635E0,1.8551777E1,9.180252E0,9.991054E0,5.333134E0,2.1713991E1,5.29434E1,1.4284053E1,2.1754772E1,1.5035765E1,4.4329845E1,5.237434E0,1.2949435E1,5.602342E0],"tree_param":{"num_deleted":"0","num_feature":"4","num_nodes":"33","size_leaf_vector":"1"}},{"base_weights":[-8.069035E-3,-8.892589E-1,9.3825626E-1,-9.5872897E-1,-3.424162E-1,2.0210777E-1,1.0293281E-1,-6.20334E-1,-9.886899E-2,4.925452E-4,-6.074918E-2,-3.6908284E-2,5.0255176E-2,-9.2713304E-2,-6.6365004E-3],"categories":[],"categories_nodes":[],"categories_segments":[],"categories_sizes":[],"default_left":[0,0,0,0,0,0,0,0,0,0,0,0,0,0,0],"id":30,"left_children":[1,3,5,7,9,11,-1,13,-1,-1,-1,-1,-1,-1,-1],"loss_changes":[2.5295284E2,5.6387177E0,9.59816E0,7.9403687E-1,1.7763369E0,3.1625128E0,0E0,2.3135324E0,0E0,0E0,0E0,0E0,0E0,0E0,0E0],"parents":[2147483647,0,0,1,1,2,2,3,3,4,4,5,5,7,7],"right_children":[2,4,6,8,10,12,-1,14,-1,-1,-1,-1,-1,-1,-1],"split_conditions":[1.5560144E-1,3.69115E-2,8.927129E-1,2.9575245E-3,3.742445E-3,2.703289E-3,1.0293281E-1,5.6387316E-3,-9.886899E-2,4.925452E-4,-6.074918E-2,-3.6908284E-2,5.0255176E-2,-9.2713304E-2,-6.6365004E-3],"split_indices":[3,3,3,2,0,0,0,3,0,0,0,0,0,0,0],"split_type":[0,0,0,0,0,0,0,0,0,0,0,0,0,0,0],"sum_hessian":[3.0133942E2,1.5607103E2,1.4526839E2,1.3781058E2,1.826045E1,1.6347569E1,1.289208E2,1.2974475E1,1.248361E2,8.328554E0,9.931896E0,5.5561004E0,1.0791469E1,7.9165273E0,5.057948E0],"tree_param":{"num_deleted":"0","num_feature":"4","num_nodes":"15","size_leaf_vector":"1"}},{"base_weights":[6.464815E-3,-8.34688E-1,9.09593E-1,-9.538023E-1,-4.1694662E-1,1.4389876E-1,1.02314845E-1,-5.554189E-2,-9.6834525E-2,-1.8008438E-1,-9.5013164E-2,-1.7222656E-2,4.6406638E-2,-3.4255546E-1,2.7941471E-2,-4.240712E-2,-1.1693071E-2],"categories":[],"categories_nodes":[],"categories_segments":[],"categories_sizes":[],"default_left":[0,0,0,0,0,0,0,0,0,0,0,0,0,0,0,0,0],"id":31,"left_children":[1,3,5,7,9,11,-1,-1,-1,13,-1,-1,-1,15,-1,-1,-1],"loss_changes":[2.1114546E2,6.7633133E0,1.1506599E1,1.0644531E-1,4.085846E0,1.9497149E0,0E0,0E0,0E0,1.9302223E0,0E0,0E0,0E0,2.925644E-1,0E0,0E0,0E0],"parents":[2147483647,0,0,1,1,2,2,3,3,4,4,5,5,9,9,13,13],"right_children":[2,4,6,8,10,12,-1,-1,-1,14,-1,-1,-1,16,-1,-1,-1],"split_conditions":[1.5560144E-1,1.5084943E-2,8.927129E-1,1.8320349E-3,8.96902E-2,7.3233778E-3,1.02314845E-1,-5.554189E-2,-9.6834525E-2,7.156138E-2,-9.5013164E-2,-1.7222656E-2,4.6406638E-2,9.026504E-3,2.7941471E-2,-4.240712E-2,-1.1693071E-2],"split_indices":[3,3,3,2,0,0,0,0,0,3,0,0,0,0,0,0,0],"split_type":[0,0,0,0,0,0,0,0,0,0,0,0,0,0,0,0,0],"sum_hessian":[2.7594467E2,1.4291382E2,1.3303087E2,1.1020645E2,3.2707367E1,1.7473803E1,1.1555706E2,5.261676E0,1.0494478E2,2.3573029E1,9.134337E0,9.02491E0,8.448893E0,1.7603302E1,5.9697266E0,1.2285239E1,5.3180637E0],"tree_param":{"num_deleted":"0","num_feature":"4","num_nodes":"17","size_leaf_vector":"1"}},{"base_weights":[-1.7458068E-2,-8.3286995E-1,9.2121804E-1,-9.6309453E-1,-2.1054868E-1,1.8256733E-1,1.0266932E-1,-1.0000368E-1,-6.1641663E-1,-3.8934353E-1,2.0337265E-2,6.770795E-2,-5.460289E-2,-3.9034735E-2,-7.634498E-2,-8.402553E-3,-6.688868E-2],"categories":[],"categories_nodes":[],"categories_segments":[],"categories_sizes":[],"default_left":[0,0,0,0,0,0,0,0,0,0,0,0,0,0,0,0,0],"id":32,"left_children":[1,3,5,7,9,11,-1,-1,13,15,-1,-1,-1,-1,-1,-1,-1],"loss_changes":[1.9677226E2,1.0945488E1,9.124039E0,8.3688354E-1,1.9355974E0,6.188594E0,0E0,0E0,1.5187788E-1,1.4681983E0,0E0,0E0,0E0,0E0,0E0,0E0,0E0],"parents":[2147483647,0,0,1,1,2,2,3,3,4,4,5,5,8,8,9,9],"right_children":[2,4,6,8,10,12,-1,-1,14,16,-1,-1,-1,-1,-1,-1,-1],"split_conditions":[2.1777329E-1,3.2439057E-2,9.4941616E-1,1.5084943E-2,3.7403568E-4,6.1300467E-4,1.0266932E-1,-1.0000368E-1,1.0501858E-4,1.9318257E-5,2.0337265E-2,6.770795E-2,-5.460289E-2,-3.9034735E-2,-7.634498E-2,-8.402553E-3,-6.688868E-2],"split_indices":[3,3,3,3,1,1,0,0,1,1,0,0,0,0,0,0,0],"split_type":[0,0,0,0,0,0,0,0,0,0,0,0,0,0,0,0,0],"sum_hessian":[2.5507922E2,1.3656245E2,1.1851676E2,1.12478134E2,2.4084326E1,1.5150135E1,1.0336662E2,9.994345E1,1.2534687E1,1.6860674E1,7.2236524E0,9.066938E0,6.0831966E0,6.380005E0,6.1546826E0,8.680447E0,8.180226E0],"tree_param":{"num_deleted":"0","num_feature":"4","num_nodes":"17","size_leaf_vector":"1"}},{"base_weights":[1.3451902E-2,-8.4953386E-1,8.6662626E-1,-9.7235255E-2,-3.4180042E-1,1.9876434E-1,1.0225778E-1,2.5604919E-2,-5.107444E-1,3.7680382E-1,-3.858036E-2,-7.26948E-1,-1.8286457E-2,6.3961335E-2,2.2253165E-1,-4.15575E-2,-9.1043465E-2,-7.752201E-3,5.1640105E-2],"categories":[],"categories_nodes":[],"categories_segments":[],"categories_sizes":[],"default_left":[0,0,0,0,0,0,0,0,0,0,0,0,0,0,0,0,0,0,0],"id":33,"left_children":[1,3,5,-1,7,9,-1,-1,11,13,-1,15,-1,-1,17,-1,-1,-1,-1],"loss_changes":[1.741645E2,7.001419E0,1.2185051E1,0E0,2.6002207E0,2.6179652E0,0E0,0E0,1.2420511E0,6.1652994E-1,0E0,2.70257E-1,0E0,0E0,1.2151961E0,0E0,0E0,0E0,0E0],"parents":[2147483647,0,0,1,1,2,2,4,4,5,5,8,8,9,9,11,11,14,14],"right_children":[2,4,6,-1,8,10,-1,-1,12,14,-1,16,-1,-1,18,-1,-1,-1,-1],"split_conditions":[7.156138E-2,1.5084943E-2,8.927129E-1,-9.7235255E-2,3.220154E-6,2.539956E-3,1.0225778E-1,2.5604919E-2,4.8160928E-4,1.3221366E-2,-3.858036E-2,2.6546298E-2,-1.8286457E-2,6.3961335E-2,2.1777329E-1,-4.15575E-2,-9.1043465E-2,-7.752201E-3,5.1640105E-2],"split_indices":[3,3,3,0,1,1,0,0,1,2,0,2,0,0,3,0,0,0,0],"split_type":[0,0,0,0,0,0,0,0,0,0,0,0,0,0,0,0,0,0,0],"sum_hessian":[2.3454749E2,1.166054E2,1.1794208E2,9.3156204E1,2.3449202E1,2.2757534E1,9.518455E1,5.0528536E0,1.8396347E1,1.7716965E1,5.040569E0,1.0352682E1,8.043665E0,5.3895755E0,1.232739E1,5.04919E0,5.303492E0,6.4637833E0,5.8636065E0],"tree_param":{"num_deleted":"0","num_feature":"4","num_nodes":"19","size_leaf_vector":"1"}},{"base_weights":[-1.8939147E-2,-7.172727E-1,9.96347E-1,-9.2734404E-2,-3.0410156E-1,5.913831E-2,1.0171571E-1,-1.5627705E-1,-9.7192116E-2,5.542755E-2,-2.8328177E-1,-4.287427E-2,3.3945013E-2],"categories":[],"categories_nodes":[],"categories_segments":[],"categories_sizes":[],"default_left":[0,0,0,0,0,0,0,0,0,0,0,0,0],"id":34,"left_children":[1,3,5,-1,7,-1,-1,9,-1,-1,11,-1,-1],"loss_changes":[1.5448055E2,1.0921135E1,1.4681244E-1,0E0,4.2899566E0,0E0,0E0,3.5890958E0,0E0,0E0,3.1280897E0,0E0,0E0],"parents":[2147483647,0,0,1,1,2,2,4,4,7,7,10,10],"right_children":[2,4,6,-1,8,-1,-1,10,-1,-1,12,-1,-1],"split_conditions":[7.561382E-1,1.5869696E-2,9.775808E-1,-9.2734404E-2,9.2560863E-1,5.913831E-2,1.0171571E-1,4.493475E-3,-9.7192116E-2,5.542755E-2,6.4603144E-1,-4.287427E-2,3.3945013E-2],"split_indices":[3,3,3,0,0,0,0,2,0,0,2,0,0],"split_type":[0,0,0,0,0,0,0,0,0,0,0,0,0],"sum_hessian":[2.1587457E2,1.2807536E2,8.77992E1,8.408104E1,4.399433E1,5.7290974E0,8.207011E1,3.7031315E1,6.9630175E0,5.1051807E0,3.1926134E1,2.6133299E1,5.792836E0],"tree_param":{"num_deleted":"0","num_feature":"4","num_nodes":"13","size_leaf_vector":"1"}},{"base_weights":[-1.8911416E-2,-6.925071E-1,9.908468E-1,-9.2575073E-1,-2.9488727E-1,5.790031E-2,1.0132696E-1,-9.804268E-2,-6.7713344E-1,-5.14013E-1,-6.743435E-2,-2.8539492E-2,-9.265256E-2,-2.235764E-1,-7.1235883E-1,3.6365975E-2,-3.2264227E-1,-4.3467276E-2,2.56673E-3,-9.2656106E-2,-4.770672E-2,-3.6850336E-3,-6.964903E-2],"categories":[],"categories_nodes":[],"categories_segments":[],"categories_sizes":[],"default_left":[0,0,0,0,0,0,0,0,0,0,0,0,0,0,0,0,0,0,0,0,0,0,0],"id":35,"left_children":[1,3,5,7,9,-1,-1,-1,11,13,15,-1,-1,17,19,-1,21,-1,-1,-1,-1,-1,-1],"loss_changes":[1.3940686E2,1.1127644E1,1.7076111E-1,3.829651E-1,2.3036962E0,0E0,0E0,0E0,1.4077296E0,1.2085915E0,2.776687E0,0E0,0E0,5.948039E-1,2.4601746E-1,0E0,1.6531765E0,0E0,0E0,0E0,0E0,0E0,0E0],"parents":[2147483647,0,0,1,1,2,2,3,3,4,4,8,8,9,9,10,10,13,13,14,14,16,16],"right_children":[2,4,6,8,10,-1,-1,-1,12,14,16,-1,-1,18,20,-1,22,-1,-1,-1,-1,-1,-1],"split_conditions":[7.561382E-1,1.4350797E-2,9.775808E-1,6.7665363E-3,7.156138E-2,5.790031E-2,1.0132696E-1,-9.804268E-2,2.9827787E-2,2.5030134E-2,3.331828E-5,-2.8539492E-2,-9.265256E-2,8.183984E-3,8.939456E-2,3.6365975E-2,8.2737125E-2,-4.3467276E-2,2.56673E-3,-9.2656106E-2,-4.770672E-2,-3.6850336E-3,-6.964903E-2],"split_indices":[3,3,3,3,3,0,0,0,2,2,1,0,0,2,2,0,2,0,0,0,0,0,0],"split_type":[0,0,0,0,0,0,0,0,0,0,0,0,0,0,0,0,0,0,0,0,0,0,0],"sum_hessian":[2.029504E2,1.2192806E2,8.102233E1,7.6011505E1,4.5916553E1,5.568391E0,7.545394E1,5.9895706E1,1.6115803E1,2.2744692E1,2.3171862E1,7.102985E0,9.012817E0,1.0092908E1,1.2651783E1,8.458653E0,1.4713207E1,5.0618334E0,5.0310745E0,5.0848064E0,7.5669765E0,8.961255E0,5.751952E0],"tree_param":{"num_deleted":"0","num_feature":"4","num_nodes":"23","size_leaf_vector":"1"}},{"base_weights":[-4.1056066E-3,2.1300708E-1,-2.4742135E-1,3.3508086E-1,8.7306954E-2,-1.3018733E-1,-6.3439405E-1,6.240134E-1,1.3926658E-1,4.4156995E-2,1.941512E-2,-8.047797E-2,-6.484683E-2,-4.3521445E-2,-7.565748E-2,2.7065957E-2,7.2399217E-1,-1.6998377E-2,2.1419229E-1,-3.3267748E-2,1.0101752E-1,-2.6740035E-2,-4.255422E-2,2.8333971E-2,9.198102E-2,5.0989967E-2,3.161157E-3,2.1307774E-2,-1.4195575E-3,2.0436952E-3,-1.6850367E-2],"categories":[],"categories_nodes":[],"categories_segments":[],"categories_sizes":[],"default_left":[0,0,0,0,0,0,0,0,0,0,0,0,0,0,0,0,0,0,0,0,0,0,0,0,0,0,0,0,0,0,0],"id":36,"left_children":[1,3,5,7,9,11,13,15,17,-1,19,-1,21,-1,-1,-1,23,-1,25,-1,27,29,-1,-1,-1,-1,-1,-1,-1,-1,-1],"loss_changes":[9.984792E0,1.5035753E0,3.960401E0,2.7603526E0,1.2076654E0,3.0181117E0,1.6871166E-1,5.120735E-1,7.612746E-1,0E0,1.2828994E0,0E0,8.76439E-1,0E0,0E0,0E0,1.0358195E0,0E0,1.3673772E0,0E0,4.6868226E-1,4.012943E-1,0E0,0E0,0E0,0E0,0E0,0E0,0E0,0E0,0E0],"parents":[2147483647,0,0,1,1,2,2,3,3,4,4,5,5,6,6,7,7,8,8,10,10,12,12,16,16,18,18,20,20,21,21],"right_children":[2,4,6,8,10,12,14,16,18,-1,20,-1,22,-1,-1,-1,24,-1,26,-1,28,30,-1,-1,-1,-1,-1,-1,-1,-1,-1],"split_conditions":[6.268319E-3,9.129028E-4,9.6834457E-1,8.660489E-6,4.814235E-3,2.7050697E-3,9.957806E-1,1.0872801E-2,8.381701E-3,4.4156995E-2,1.1373771E-2,-8.047797E-2,4.9231153E-2,-4.3521445E-2,-7.565748E-2,2.7065957E-2,1.7176376E-6,-1.6998377E-2,3.0987892E-2,-3.3267748E-2,7.455408E-2,1.1145208E-1,-4.255422E-2,2.8333971E-2,9.198102E-2,5.0989967E-2,3.161157E-3,2.1307774E-2,-1.4195575E-3,2.0436952E-3,-1.6850367E-2],"split_indices":[0,0,0,1,2,2,0,2,2,0,2,0,1,0,0,0,1,0,2,0,2,0,0,0,0,0,0,0,0,0,0],"split_type":[0,0,0,0,0,0,0,0,0,0,0,0,0,0,0,0,0,0,0,0,0,0,0,0,0,0,0,0,0,0,0],"sum_hessian":[1.8701187E2,9.88932E1,8.811867E1,4.9325237E1,4.9567963E1,6.865572E1,1.946294E1,1.9041664E1,3.0283573E1,7.0864563E0,4.2481506E1,5.0633793E0,6.3592346E1,9.134268E0,1.0328672E1,5.0170674E0,1.4024596E1,5.6587596E0,2.4624815E1,7.414238E0,3.506727E1,5.8487396E1,5.10495E0,5.0676775E0,8.956919E0,8.71587E0,1.5908944E1,1.7346268E1,1.7721E1,4.4525696E1,1.3961701E1],"tree_param":{"num_deleted":"0","num_feature":"4","num_nodes":"31","size_leaf_vector":"1"}},{"base_weights":[7.800539E-3,1.2526833E-1,-4.753931E-1,3.93956E-1,4.5601744E-2,-3.0689126E-1,-7.0778854E-2,7.373623E-3,4.505784E-1,1.3280518E-1,-7.5109005E-2,-5.231595E-2,-1.8131542E-1,5.947715E-2,3.185898E-1,2.1912256E-1,-1.14064455E-1,-1.3765152E-1,2.1809075E-2,-4.322626E-2,-1.9239009E-3,5.729925E-3,4.5431167E-2,1.6236147E-2,6.1395813E-2,-4.0500958E-2,9.7835725E-3,3.3769053E-3,-2.749425E-2],"categories":[],"categories_nodes":[],"categories_segments":[],"categories_sizes":[],"default_left":[0,0,0,0,0,0,0,0,0,0,0,0,0,0,0,0,0,0,0,0,0,0,0,0,0,0,0,0,0],"id":37,"left_children":[1,3,5,7,9,11,-1,-1,13,15,17,-1,19,-1,21,23,25,27,-1,-1,-1,-1,-1,-1,-1,-1,-1,-1,-1],"loss_changes":[1.0590146E1,3.1936636E0,1.2117567E0,5.865488E-1,1.2400482E0,5.2758336E-1,0E0,0E0,3.595848E-1,1.4783958E0,9.4048554E-1,0E0,6.4367634E-1,0E0,5.8450115E-1,1.0405619E0,1.169532E0,9.867817E-1,0E0,0E0,0E0,0E0,0E0,0E0,0E0,0E0,0E0,0E0,0E0],"parents":[2147483647,0,0,1,1,2,2,3,3,4,4,5,5,8,8,9,9,10,10,12,12,14,14,15,15,16,16,17,17],"right_children":[2,4,6,8,10,12,-1,-1,14,16,18,-1,20,-1,22,24,26,28,-1,-1,-1,-1,-1,-1,-1,-1,-1,-1,-1],"split_conditions":[1.1145208E-1,4.3182325E-4,9.8874366E-1,3.1647138E-5,1.0501858E-4,2.0783745E-2,-7.0778854E-2,7.373623E-3,1.1248251E-5,1.0918511E-2,3.7427407E-2,-5.231595E-2,8.2387507E-1,5.947715E-2,2.242554E-2,8.215744E-3,3.340919E-2,3.742445E-3,2.1809075E-2,-4.322626E-2,-1.9239009E-3,5.729925E-3,4.5431167E-2,1.6236147E-2,6.1395813E-2,-4.0500958E-2,9.7835725E-3,3.3769053E-3,-2.749425E-2],"split_indices":[0,0,0,0,1,2,0,0,1,0,0,0,0,0,2,0,2,0,0,0,0,0,0,0,0,0,0,0,0],"split_type":[0,0,0,0,0,0,0,0,0,0,0,0,0,0,0,0,0,0,0,0,0,0,0,0,0,0,0,0,0],"sum_hessian":[1.845295E2,1.4903804E2,3.549145E1,3.318191E1,1.1585613E2,2.1919174E1,1.3572275E1,5.331669E0,2.7850245E1,6.720554E1,4.8650585E1,6.888915E0,1.503026E1,1.1634121E1,1.6216124E1,4.987816E1,1.7327383E1,4.053465E1,8.115937E0,5.2439246E0,9.786335E0,6.029796E0,1.0186328E1,4.4842823E1,5.0353374E0,6.9177666E0,1.0409616E1,1.8362007E1,2.2172642E1],"tree_param":{"num_deleted":"0","num_feature":"4","num_nodes":"29","size_leaf_vector":"1"}},{"base_weights":[-2.2702893E-2,1.8563011E-1,-2.0315114E-1,3.1788018E-1,7.977116E-2,-1.1301154E-1,-5.848042E-1,4.611344E-1,2.066559E-1,-1.5211364E-2,5.172518E-2,2.560081E-2,-1.6027768E-1,-3.6999997E-2,-6.8290755E-2,2.0107804E-2,5.9523143E-2,7.705753E-3,2.7589172E-1,-7.362617E-2,3.194333E-2,-5.7767987E-2,-1.2087015E-1,1.1635702E-2,3.8351458E-2,9.775975E-3,-1.3358787E-2,-7.938814E-3,-5.0784003E-2],"categories":[],"categories_nodes":[],"categories_segments":[],"categories_sizes":[],"default_left":[0,0,0,0,0,0,0,0,0,0,0,0,0,0,0,0,0,0,0,0,0,0,0,0,0,0,0,0,0],"id":38,"left_children":[1,3,5,7,9,11,13,15,17,19,-1,-1,21,-1,-1,-1,-1,-1,23,25,-1,-1,27,-1,-1,-1,-1,-1,-1],"loss_changes":[6.9516845E0,1.1770129E0,3.3407602E0,5.077436E-1,2.0454957E0,1.4599406E0,1.409893E-1,4.2885756E-1,1.8617254E-1,8.30095E-1,0E0,0E0,1.1264604E0,0E0,0E0,0E0,0E0,0E0,2.0743167E-1,3.8241625E-1,0E0,0E0,1.0467186E0,0E0,0E0,0E0,0E0,0E0,0E0],"parents":[2147483647,0,0,1,1,2,2,3,3,4,4,5,5,6,6,7,7,8,8,9,9,12,12,18,18,19,19,22,22],"right_children":[2,4,6,8,10,12,14,16,18,20,-1,-1,22,-1,-1,-1,-1,-1,24,26,-1,-1,28,-1,-1,-1,-1,-1,-1],"split_conditions":[3.8576282E-3,5.3619256E-4,9.6834457E-1,1.2031084E-5,2.9538681E-3,3.1072027E-6,9.93771E-1,2.1962292E-6,2.242554E-2,5.261763E-1,5.172518E-2,2.560081E-2,2.7050697E-3,-3.6999997E-2,-6.8290755E-2,2.0107804E-2,5.9523143E-2,7.705753E-3,1.5353516E-4,8.854319E-4,3.194333E-2,-5.7767987E-2,4.9231153E-2,1.1635702E-2,3.8351458E-2,9.775975E-3,-1.3358787E-2,-7.938814E-3,-5.0784003E-2],"split_indices":[0,0,0,1,0,1,0,1,2,2,0,0,2,0,0,0,0,0,1,0,0,0,1,0,0,0,0,0,0],"split_type":[0,0,0,0,0,0,0,0,0,0,0,0,0,0,0,0,0,0,0,0,0,0,0,0,0,0,0,0,0],"sum_hessian":[1.8291492E2,8.4884476E1,9.803043E1,3.684766E1,4.8036816E1,8.034945E1,1.768099E1,1.4729906E1,2.2117754E1,4.02609E1,7.775917E0,8.621642E0,7.1727806E1,7.0393558E0,1.0641633E1,5.8617053E0,8.8682E0,8.437352E0,1.3680403E1,3.4941566E1,5.319333E0,5.009402E0,6.67184E1,6.34945E0,7.3309526E0,8.892927E0,2.604864E1,6.134731E1,5.3710938E0],"tree_param":{"num_deleted":"0","num_feature":"4","num_nodes":"29","size_leaf_vector":"1"}},{"base_weights":[-2.336188E-2,-6.790491E-1,9.834867E-1,-8.966208E-2,-3.0965212E-1,5.4318666E-2,1.00922845E-1,3.1911895E-2,-4.2523798E-1,-5.470722E-1,8.318091E-3,-8.527993E-3,-6.547232E-2],"categories":[],"categories_nodes":[],"categories_segments":[],"categories_sizes":[],"default_left":[0,0,0,0,0,0,0,0,0,0,0,0,0],"id":39,"left_children":[1,3,5,-1,7,-1,-1,-1,9,11,-1,-1,-1],"loss_changes":[1.1975099E2,8.549572E0,2.627411E-1,0E0,3.205501E0,0E0,0E0,0E0,2.282176E0,1.3987732E0,0E0,0E0,0E0],"parents":[2147483647,0,0,1,1,2,2,4,4,8,8,9,9],"right_children":[2,4,6,-1,8,-1,-1,-1,10,12,-1,-1,-1],"split_conditions":[7.561382E-1,1.4350797E-2,9.775808E-1,-8.966208E-2,3.7787957E-3,5.4318666E-2,1.00922845E-1,3.1911895E-2,2.1777329E-1,3.220154E-6,8.318091E-3,-8.527993E-3,-6.547232E-2],"split_indices":[3,3,3,0,2,0,0,0,3,1,0,0,0],"split_type":[0,0,0,0,0,0,0,0,0,0,0,0,0],"sum_hessian":[1.7938045E2,1.08831795E2,7.054865E1,6.7592896E1,4.1238903E1,5.1175084E0,6.5431145E1,6.13026E0,3.5108643E1,2.8260466E1,6.848178E0,5.6813374E0,2.2579128E1],"tree_param":{"num_deleted":"0","num_feature":"4","num_nodes":"13","size_leaf_vector":"1"}},{"base_weights":[-1.008593E-2,8.298577E-2,-4.2757812E-1,2.8953126E-1,-1.9270185E-2,-2.7343047E-1,-6.1188318E-2,3.5619432E-1,-2.186941E-2,7.079328E-3,-3.8478807E-2,-4.462083E-2,-1.5835205E-1,5.1925445E-1,2.364118E-1,-2.7227718E-2,3.3656765E-2,4.821014E-3,-2.9535031E-2,2.4500266E-2,6.235664E-2,3.8724683E-2,5.5184206E-3,-3.7298552E-4,3.4506556E-2],"categories":[],"categories_nodes":[],"categories_segments":[],"categories_sizes":[],"default_left":[0,0,0,0,0,0,0,0,0,0,0,0,0,0,0,0,0,0,0,0,0,0,0,0,0],"id":40,"left_children":[1,3,5,7,9,11,-1,13,-1,15,-1,-1,17,19,21,-1,23,-1,-1,-1,-1,-1,-1,-1,-1],"loss_changes":[6.6993318E0,2.9851074E0,7.254901E-1,1.6626956E0,9.205384E-1,3.055395E-1,0E0,6.923647E-1,0E0,6.764105E-1,0E0,0E0,3.7948015E-1,3.2892084E-1,6.86489E-1,0E0,9.6706504E-1,0E0,0E0,0E0,0E0,0E0,0E0,0E0,0E0],"parents":[2147483647,0,0,1,1,2,2,3,3,4,4,5,5,7,7,9,9,12,12,13,13,14,14,16,16],"right_children":[2,4,6,8,10,12,-1,14,-1,16,-1,-1,18,20,22,-1,24,-1,-1,-1,-1,-1,-1,-1,-1],"split_conditions":[1.3110761E-1,9.5339556E-4,9.8695123E-1,5.507001E-3,5.498289E-2,2.2856083E-2,-6.1188318E-2,7.318645E-6,-2.186941E-2,2.7050697E-3,-3.8478807E-2,-4.462083E-2,1.4466819E-1,1.2134097E-4,3.702398E-2,-2.7227718E-2,5.507001E-3,4.821014E-3,-2.9535031E-2,2.4500266E-2,6.235664E-2,3.8724683E-2,5.5184206E-3,-3.7298552E-4,3.4506556E-2],"split_indices":[0,0,0,1,1,2,0,1,0,2,0,0,2,0,2,0,1,0,0,0,0,0,0,0,0],"split_type":[0,0,0,0,0,0,0,0,0,0,0,0,0,0,0,0,0,0,0,0,0,0,0,0,0],"sum_hessian":[1.7049803E2,1.4007277E2,3.0425253E1,4.5776993E1,9.429578E1,1.7920565E1,1.2504688E1,4.0733223E1,5.0437675E0,8.886994E1,5.4258394E0,6.0139055E0,1.190666E1,1.5837978E1,2.4895247E1,6.9172955E0,8.1952644E1,5.0063386E0,6.9003215E0,5.2868357E0,1.0551143E1,1.2966489E1,1.1928758E1,7.405044E1,7.902206E0],"tree_param":{"num_deleted":"0","num_feature":"4","num_nodes":"25","size_leaf_vector":"1"}},{"base_weights":[6.307423E-3,-5.929931E-1,9.7781265E-1,-8.3139896E-1,-2.3639034E-2,5.480763E-2,1.005816E-1,-9.8131925E-2,-5.852251E-1,8.344986E-2,-5.0413102E-2,-4.6557677E-3,-6.883495E-1,-9.285289E-2,4.8635583E-2,-2.2269761E-2,-7.8951016E-2,-2.0227639E-2,1.8159198E-2],"categories":[],"categories_nodes":[],"categories_segments":[],"categories_sizes":[],"default_left":[0,0,0,0,0,0,0,0,0,0,0,0,0,0,0,0,0,0,0],"id":41,"left_children":[1,3,5,7,9,-1,-1,-1,11,13,-1,-1,15,17,-1,-1,-1,-1,-1],"loss_changes":[1.00342155E2,1.44494705E1,2.3997879E-1,2.1975975E0,1.7138867E0,0E0,0E0,0E0,1.6847057E0,1.9933982E0,0E0,0E0,1.0426321E0,6.348942E-1,0E0,0E0,0E0,0E0,0E0],"parents":[2147483647,0,0,1,1,2,2,3,3,4,4,8,8,9,9,12,12,13,13],"right_children":[2,4,6,8,10,-1,-1,-1,12,14,-1,-1,16,18,-1,-1,-1,-1,-1],"split_conditions":[7.561382E-1,3.2439057E-2,9.823438E-1,5.482703E-3,5.8617885E-3,5.480763E-2,1.005816E-1,-9.8131925E-2,5.104814E-3,2.1777329E-1,-5.0413102E-2,-4.6557677E-3,5.619705E-6,1.8435673E-4,4.8635583E-2,-2.2269761E-2,-7.8951016E-2,-2.0227639E-2,1.8159198E-2],"split_indices":[3,3,3,3,1,0,0,0,2,3,0,0,1,1,0,0,0,0,0],"split_type":[0,0,0,0,0,0,0,0,0,0,0,0,0,0,0,0,0,0,0],"sum_hessian":[1.7034709E2,1.05596504E2,6.475058E1,7.410587E1,3.1490633E1,5.219805E0,5.9530777E1,4.420107E1,2.9904802E1,2.6427065E1,5.063567E0,5.0383873E0,2.4866415E1,1.8918354E1,7.508712E0,5.0093474E0,1.9857069E1,1.3713591E1,5.2047634E0],"tree_param":{"num_deleted":"0","num_feature":"4","num_nodes":"19","size_leaf_vector":"1"}},{"base_weights":[6.465338E-3,-6.1739844E-1,9.3149817E-1,-8.343055E-1,2.454829E-2,2.4846325E-2,1.00285545E-1,-9.3705915E-2,-6.141065E-1,1.73398E-1,-3.9562702E-2,-4.1448626E-1,-8.3830945E-2,-2.4926154E-2,4.8531222E-1,-1.3748846E-2,-6.924579E-2,7.611682E-2,1.394957E-2],"categories":[],"categories_nodes":[],"categories_segments":[],"categories_sizes":[],"default_left":[0,0,0,0,0,0,0,0,0,0,0,0,0,0,0,0,0,0,0],"id":42,"left_children":[1,3,5,7,9,-1,-1,-1,11,13,-1,15,-1,-1,17,-1,-1,-1,-1],"loss_changes":[9.1298225E1,1.3177311E1,2.8564148E0,1.0231781E0,1.6218473E0,0E0,0E0,0E0,7.884846E-1,2.6302433E0,0E0,1.0909216E0,0E0,0E0,9.709239E-1,0E0,0E0,0E0,0E0],"parents":[2147483647,0,0,1,1,2,2,3,3,4,4,8,8,9,9,11,11,14,14],"right_children":[2,4,6,8,10,-1,-1,-1,12,14,-1,16,-1,-1,18,-1,-1,-1,-1],"split_conditions":[4.0418753E-1,3.69115E-2,9.4941616E-1,6.7665363E-3,4.160934E-2,2.4846325E-2,1.00285545E-1,-9.3705915E-2,1.8448344E-2,1.3349316E-3,-3.9562702E-2,1.5869696E-2,-8.3830945E-2,-2.4926154E-2,6.4435215E-3,-1.3748846E-2,-6.924579E-2,7.611682E-2,1.394957E-2],"split_indices":[3,3,3,3,0,0,0,0,0,0,0,3,0,0,0,0,0,0,0],"split_type":[0,0,0,0,0,0,0,0,0,0,0,0,0,0,0,0,0,0,0],"sum_hessian":[1.5620668E2,9.348845E1,6.271823E1,6.965359E1,2.3834866E1,6.356398E0,5.6361835E1,4.5272247E1,2.4381336E1,1.8033651E1,5.801213E0,1.4404727E1,9.97661E0,7.7427287E0,1.0290923E1,7.96362E0,6.4411063E0,5.056392E0,5.2345314E0],"tree_param":{"num_deleted":"0","num_feature":"4","num_nodes":"19","size_leaf_vector":"1"}},{"base_weights":[2.8867492E-2,-7.230201E-1,7.6070833E-1,-8.74142E-2,-2.819309E-1,1.5533394E-1,9.830062E-2,8.824266E-3,-4.8868412E-1,4.7502898E-2,2.4452379E-2,-6.29791E-2,-2.6964033E-2,2.9733926E-2,-1.5894344E-2],"categories":[],"categories_nodes":[],"categories_segments":[],"categories_sizes":[],"default_left":[0,0,0,0,0,0,0,0,0,0,0,0,0,0,0],"id":43,"left_children":[1,3,5,-1,7,9,-1,-1,11,-1,13,-1,-1,-1,-1],"loss_changes":[8.1840256E1,4.6449203E0,9.987457E0,0E0,1.5892197E0,8.848707E-1,0E0,0E0,2.3554039E-1,0E0,8.608191E-1,0E0,0E0,0E0,0E0],"parents":[2147483647,0,0,1,1,2,2,4,4,5,5,8,8,10,10],"right_children":[2,4,6,-1,8,10,-1,-1,12,-1,14,-1,-1,-1,-1],"split_conditions":[7.156138E-2,1.4350797E-2,7.561382E-1,-8.74142E-2,1.4046355E-2,6.7907837E-3,9.830062E-2,8.824266E-3,3.2439057E-2,4.7502898E-2,3.331828E-5,-6.29791E-2,-2.6964033E-2,2.9733926E-2,-1.5894344E-2],"split_indices":[3,3,3,0,2,2,0,0,3,0,1,0,0,0,0],"split_type":[0,0,0,0,0,0,0,0,0,0,0,0,0,0,0],"sum_hessian":[1.4673007E2,7.237974E1,7.435033E1,5.317845E1,1.9201288E1,2.0425415E1,5.392491E1,7.086581E0,1.2114707E1,5.1692934E0,1.5256122E1,6.227682E0,5.8870244E0,5.882242E0,9.373879E0],"tree_param":{"num_deleted":"0","num_feature":"4","num_nodes":"15","size_leaf_vector":"1"}},{"base_weights":[3.1389114E-2,-6.186443E-1,8.024805E-1,-8.437343E-1,-2.6647076E-1,1.9376698E-1,9.9573E-2,-8.8983244E-1,-5.0864547E-2,2.1537466E-2,-3.8782838E-1,-3.867344E-2,5.6463864E-2,-9.557926E-2,-5.235634E-2,-5.6464636E-1,1.0589681E-2,-2.9757975E-2,-7.780554E-2],"categories":[],"categories_nodes":[],"categories_segments":[],"categories_sizes":[],"default_left":[0,0,0,0,0,0,0,0,0,0,0,0,0,0,0,0,0,0,0],"id":44,"left_children":[1,3,5,7,9,11,-1,13,-1,-1,15,-1,-1,-1,-1,17,-1,-1,-1],"loss_changes":[6.949511E1,5.7408066E0,7.2651215E0,2.4946213E-1,1.8849304E0,3.7748384E0,0E0,4.325962E-1,0E0,0E0,2.2392495E0,0E0,0E0,0E0,0E0,8.2514334E-1,0E0,0E0,0E0],"parents":[2147483647,0,0,1,1,2,2,3,3,4,4,5,5,7,7,10,10,15,15],"right_children":[2,4,6,8,10,12,-1,14,-1,-1,16,-1,-1,-1,-1,18,-1,-1,-1],"split_conditions":[1.5560144E-1,1.01502985E-2,9.4941616E-1,6.7665363E-3,3.220154E-6,1.4508242E-2,9.9573E-2,5.261763E-1,-5.0864547E-2,2.1537466E-2,2.8677038E-3,-3.867344E-2,5.6463864E-2,-9.557926E-2,-5.235634E-2,2.5030134E-2,1.0589681E-2,-2.9757975E-2,-7.780554E-2],"split_indices":[3,3,3,3,1,2,0,2,0,0,1,0,0,0,0,2,0,0,0],"split_type":[0,0,0,0,0,0,0,0,0,0,0,0,0,0,0,0,0,0,0],"sum_hessian":[1.3665724E2,7.425645E1,6.2400803E1,4.4450397E1,2.9806044E1,1.5519339E1,4.6881462E1,3.7619568E1,6.8308296E0,5.840776E0,2.396527E1,6.033196E0,9.486143E0,3.0514738E1,7.104831E0,1.7540012E1,6.4252563E0,8.854114E0,8.685899E0],"tree_param":{"num_deleted":"0","num_feature":"4","num_nodes":"19","size_leaf_vector":"1"}},{"base_weights":[5.3527195E-4,-5.1503277E-1,9.709912E-2,-8.455118E-1,-1.1143027E-1,-9.304619E-2,-5.5167496E-1,3.3805043E-2,-7.181257E-2,-2.174815E-2,-8.547611E-2,-2.473983E-1,1.9868924E-1,9.39051E-3,-5.622078E-2,6.6612236E-2,-1.9377962E-3],"categories":[],"categories_nodes":[],"categories_segments":[],"categories_sizes":[],"default_left":[0,0,0,0,0,0,0,0,0,0,0,0,0,0,0,0,0],"id":45,"left_children":[1,3,-1,5,7,-1,9,11,-1,-1,-1,13,15,-1,-1,-1,-1],"loss_changes":[6.463477E1,1.1158455E1,0E0,6.407089E-1,3.4723392E0,0E0,1.113126E0,1.5573813E0,0E0,0E0,0E0,1.3925076E0,2.1595879E0,0E0,0E0,0E0,0E0],"parents":[2147483647,0,0,1,1,3,3,4,4,6,6,7,7,11,11,12,12],"right_children":[2,4,-1,6,8,-1,10,12,-1,-1,-1,14,16,-1,-1,-1,-1],"split_conditions":[8.927129E-1,1.4350797E-2,9.709912E-2,6.316447E-3,2.1765994E-1,-9.304619E-2,1.1270249E-2,1.3774479E-3,-7.181257E-2,-2.174815E-2,-8.547611E-2,8.086346E-6,3.742445E-3,9.39051E-3,-5.622078E-2,6.6612236E-2,-1.9377962E-3],"split_indices":[3,3,0,3,0,0,0,0,0,0,0,1,0,0,0,0,0],"split_type":[0,0,0,0,0,0,0,0,0,0,0,0,0,0,0,0,0],"sum_hessian":[1.271832E2,8.3364136E1,4.381906E1,4.5232124E1,3.8132015E1,3.3407276E1,1.1824847E1,3.1528713E1,6.6033006E0,6.4406805E0,5.3841667E0,1.1468763E1,2.005995E1,5.839514E0,5.6292496E0,5.727731E0,1.4332219E1],"tree_param":{"num_deleted":"0","num_feature":"4","num_nodes":"17","size_leaf_vector":"1"}},{"base_weights":[1.00047495E-2,-4.5430014E-1,9.6494295E-2,-8.2991433E-1,-5.8865834E-2,-9.371697E-2,-6.351158E-1,5.2356936E-2,-6.754963E-2,-3.5402995E-2,-8.971308E-2,-6.108377E-2,6.314481E-2,3.6537368E-2,-2.2788458E-2],"categories":[],"categories_nodes":[],"categories_segments":[],"categories_sizes":[],"default_left":[0,0,0,0,0,0,0,0,0,0,0,0,0,0,0],"id":46,"left_children":[1,3,-1,5,7,-1,9,11,-1,-1,-1,13,-1,-1,-1],"loss_changes":[5.4999363E1,1.2350248E1,0E0,2.9767227E-1,2.8982136E0,0E0,1.0285077E0,2.422684E0,0E0,0E0,0E0,2.3068206E0,0E0,0E0,0E0],"parents":[2147483647,0,0,1,1,3,3,4,4,6,6,7,7,11,11],"right_children":[2,4,-1,6,8,-1,10,12,-1,-1,-1,14,-1,-1,-1],"split_conditions":[8.927129E-1,1.4350797E-2,9.6494295E-2,4.326668E-3,1.1653852E-2,-9.371697E-2,1.1270249E-2,1.3541972E-3,-6.754963E-2,-3.5402995E-2,-8.971308E-2,3.6999031E-6,6.314481E-2,3.6537368E-2,-2.2788458E-2],"split_indices":[3,3,0,3,1,0,0,1,0,0,0,1,0,0,0],"split_type":[0,0,0,0,0,0,0,0,0,0,0,0,0,0,0],"sum_hessian":[1.2205627E2,8.247835E1,3.9577915E1,4.1735752E1,4.0742596E1,2.445819E1,1.7277561E1,3.5292004E1,5.450592E0,9.46974E0,7.8078203E0,3.025896E1,5.033043E0,8.17291E0,2.208605E1],"tree_param":{"num_deleted":"0","num_feature":"4","num_nodes":"15","size_leaf_vector":"1"}},{"base_weights":[2.2482403E-2,-4.6260202E-1,9.875528E-2,-8.795899E-2,-1.9469845E-1,-3.0094707E-2,-8.686679E-2,-1.3312152E-1,2.6714599E-2,6.989223E-3,-7.478869E-2],"categories":[],"categories_nodes":[],"categories_segments":[],"categories_sizes":[],"default_left":[0,0,0,0,0,0,0,0,0,0,0],"id":47,"left_children":[1,3,-1,-1,5,7,-1,9,-1,-1,-1],"loss_changes":[5.3716625E1,8.362858E0,0E0,0E0,5.2761955E0,1.243659E0,0E0,3.7918181E0,0E0,0E0,0E0],"parents":[2147483647,0,0,1,1,4,4,5,5,7,7],"right_children":[2,4,-1,-1,6,8,-1,10,-1,-1,-1],"split_conditions":[7.561382E-1,6.316447E-3,9.875528E-2,-8.795899E-2,2.1765994E-1,1.112944E-3,-8.686679E-2,1.0501858E-4,2.6714599E-2,6.989223E-3,-7.478869E-2],"split_indices":[3,3,0,0,0,1,0,1,0,0,0],"split_type":[0,0,0,0,0,0,0,0,0,0,0],"sum_hessian":[1.12768776E2,7.539352E1,3.737526E1,2.8597973E1,4.6795544E1,3.8449635E1,8.345912E0,2.896292E1,9.486715E0,2.2439156E1,6.523763E0],"tree_param":{"num_deleted":"0","num_feature":"4","num_nodes":"11","size_leaf_vector":"1"}},{"base_weights":[1.8219452E-3,9.0123475E-2,-3.914373E-1,4.5186598E-2,5.137032E-2,-6.1143737E-2,-2.542874E-1,-1.9950108E-1,1.1906968E-1,-4.9181273E-3,-3.6683556E-2,-3.443907E-2,-4.329706E-3,3.45058E-1,4.5140825E-2,7.2666496E-2,-2.5368358E-3,1.0365545E-2,-3.6322128E-2],"categories":[],"categories_nodes":[],"categories_segments":[],"categories_sizes":[],"default_left":[0,0,0,0,0,0,0,0,0,0,0,0,0,0,0,0,0,0,0],"id":48,"left_children":[1,3,5,-1,7,-1,9,11,13,-1,-1,-1,-1,15,17,-1,-1,-1,-1],"loss_changes":[3.8333204E0,1.2403064E0,4.5529556E-1,0E0,1.4255675E0,0E0,3.093199E-1,3.9052224E-1,1.0808108E0,0E0,0E0,0E0,0E0,2.2837818E0,1.2467085E0,0E0,0E0,0E0,0E0],"parents":[2147483647,0,0,1,1,2,2,4,4,6,6,7,7,8,8,13,13,14,14],"right_children":[2,4,6,-1,8,-1,10,12,14,-1,-1,-1,-1,16,18,-1,-1,-1,-1],"split_conditions":[1.1145208E-1,3.1132423E-3,1.8111907E-2,4.5186598E-2,1.0872801E-2,-6.1143737E-2,1.1094847E-1,1.8318082E-3,2.5030134E-2,-4.9181273E-3,-3.6683556E-2,-3.443907E-2,-4.329706E-3,1.5375451E-3,8.9161135E-3,7.2666496E-2,-2.5368358E-3,1.0365545E-2,-3.6322128E-2],"split_indices":[0,2,2,0,2,0,2,0,2,0,0,0,0,0,1,0,0,0,0],"split_type":[0,0,0,0,0,0,0,0,0,0,0,0,0,0,0,0,0,0,0],"sum_hessian":[1.0837365E2,8.913117E1,1.9242481E1,7.593095E0,8.153807E1,6.0613656E0,1.3181115E1,1.69139E1,6.4624176E1,5.1793413E0,8.001774E0,8.149734E0,8.764166E0,1.502569E1,4.9598484E1,6.9274497E0,8.09824E0,4.4034855E1,5.5636315E0],"tree_param":{"num_deleted":"0","num_feature":"4","num_nodes":"19","size_leaf_vector":"1"}},{"base_weights":[-4.0294165E-3,-4.90381E-1,8.9034826E-1,-8.9440726E-2,-2.6127264E-1,2.9568663E-2,9.809401E-2,-1.3006751E-1,-7.503591E-2,3.6794037E-2,-2.2659254E-1,-7.140433E-2,-1.0253987E-2],"categories":[],"categories_nodes":[],"categories_segments":[],"categories_sizes":[],"default_left":[0,0,0,0,0,0,0,0,0,0,0,0,0],"id":49,"left_children":[1,3,5,-1,7,-1,-1,9,-1,-1,11,-1,-1],"loss_changes":[4.7484344E1,6.31131E0,1.7815132E0,0E0,2.8884537E0,0E0,0E0,1.9052312E0,0E0,0E0,1.8839153E0,0E0,0E0],"parents":[2147483647,0,0,1,1,2,2,4,4,7,7,10,10],"right_children":[2,4,6,-1,8,-1,-1,10,-1,-1,12,-1,-1],"split_conditions":[4.0418753E-1,5.482703E-3,9.4941616E-1,-8.9440726E-2,1.0466545E-1,2.9568663E-2,9.809401E-2,4.814235E-3,-7.503591E-2,3.6794037E-2,1.1018698E-2,-7.140433E-2,-1.0253987E-2],"split_indices":[3,3,3,0,0,0,0,2,0,0,2,0,0],"split_type":[0,0,0,0,0,0,0,0,0,0,0,0,0],"sum_hessian":[1.0716018E2,6.97064E1,3.745378E1,2.417341E1,4.553299E1,5.515165E0,3.1938614E1,3.689994E1,8.63305E0,5.5343485E0,3.1365593E1,5.3981624E0,2.596743E1],"tree_param":{"num_deleted":"0","num_feature":"4","num_nodes":"13","size_leaf_vector":"1"}},{"base_weights":[-6.6078245E-3,-4.1110793E-1,9.766666E-2,-7.602234E-1,-1.397563E-1,-8.4879346E-2,-4.103851E-2,3.4775164E-2,-2.381734E-1,-3.6345696E-1,1.3009031E-2,-8.0770634E-2,-2.0288002E-2],"categories":[],"categories_nodes":[],"categories_segments":[],"categories_sizes":[],"default_left":[0,0,0,0,0,0,0,0,0,0,0,0,0],"id":50,"left_children":[1,3,-1,5,7,-1,-1,-1,9,11,-1,-1,-1],"loss_changes":[4.0723724E1,6.765111E0,0E0,6.275883E-1,2.0997508E0,0E0,0E0,0E0,1.6883929E0,1.7482603E0,0E0,0E0,0E0],"parents":[2147483647,0,0,1,1,3,3,4,4,8,8,9,9],"right_children":[2,4,-1,6,8,-1,-1,-1,10,12,-1,-1,-1],"split_conditions":[9.4941616E-1,1.01502985E-2,9.766666E-2,3.7392792E-1,4.493475E-3,-8.4879346E-2,-4.103851E-2,3.4775164E-2,2.1777329E-1,1.2697685E-2,1.3009031E-2,-8.0770634E-2,-2.0288002E-2],"split_indices":[3,3,0,2,2,0,0,0,3,2,0,0,0],"split_type":[0,0,0,0,0,0,0,0,0,0,0,0,0],"sum_hessian":[1.0037968E2,7.1533905E1,2.884577E1,3.0496334E1,4.1037575E1,2.3197165E1,7.299169E0,6.4674897E0,3.4570084E1,2.5804447E1,8.765637E0,5.7809486E0,2.0023499E1],"tree_param":{"num_deleted":"0","num_feature":"4","num_nodes":"13","size_leaf_vector":"1"}},{"base_weights":[-8.4850945E-2,-5.537121E-1,8.637964E-1,-8.364721E-2,-3.9027974E-1,2.4574164E-2,9.721362E-2,-2.2080341E-1,-6.4948565E-1,-3.3962765E-1,2.4692642E-2,-8.363133E-2,-2.4452422E-2,-1.5884677E-2,-4.665934E-2],"categories":[],"categories_nodes":[],"categories_segments":[],"categories_sizes":[],"default_left":[0,0,0,0,0,0,0,0,0,0,0,0,0,0,0],"id":51,"left_children":[1,3,5,-1,7,-1,-1,9,11,13,-1,-1,-1,-1,-1],"loss_changes":[4.311064E1,2.6660213E0,1.9101334E0,0E0,1.741653E0,0E0,0E0,1.6101199E0,1.0400438E0,4.3818164E-1,0E0,0E0,0E0,0E0,0E0],"parents":[2147483647,0,0,1,1,2,2,4,4,7,7,8,8,9,9],"right_children":[2,4,6,-1,8,-1,-1,10,12,14,-1,-1,-1,-1,-1],"split_conditions":[4.0418753E-1,6.316447E-3,9.4941616E-1,-8.364721E-2,1.1270249E-2,2.4574164E-2,9.721362E-2,5.647047E-3,7.156138E-2,8.227747E-4,2.4692642E-2,-8.363133E-2,-2.4452422E-2,-1.5884677E-2,-4.665934E-2],"split_indices":[3,3,3,0,0,0,0,0,3,0,0,0,0,0,0],"split_type":[0,0,0,0,0,0,0,0,0,0,0,0,0,0,0],"sum_hessian":[9.484957E1,6.3755337E1,3.1094236E1,2.1844048E1,4.191129E1,5.1250706E0,2.5969166E1,2.6461704E1,1.5449584E1,2.1319485E1,5.1422195E0,9.843259E0,5.6063247E0,9.724418E0,1.1595067E1],"tree_param":{"num_deleted":"0","num_feature":"4","num_nodes":"15","size_leaf_vector":"1"}},{"base_weights":[5.5345397E-2,-2.870362E-1,9.685459E-2,-6.520516E-1,1.6315354E-2,-8.055645E-2,-3.4656918E-1,9.5427886E-2,-3.3591587E-2,-2.4643212E-3,-5.7660352E-2,-1.78722E-1,3.3891967E-1,7.923164E-3,-5.2978355E-2,9.105435E-3,4.360247E-2],"categories":[],"categories_nodes":[],"categories_segments":[],"categories_sizes":[],"default_left":[0,0,0,0,0,0,0,0,0,0,0,0,0,0,0,0,0],"id":52,"left_children":[1,3,-1,5,7,-1,9,11,-1,-1,-1,13,15,-1,-1,-1,-1],"loss_changes":[2.8785227E1,7.43877E0,0E0,1.1498175E0,1.0801609E0,0E0,8.704815E-1,2.1628153E0,0E0,0E0,0E0,1.4427667E0,3.70054E-1,0E0,0E0,0E0,0E0],"parents":[2147483647,0,0,1,1,3,3,4,4,6,6,7,7,11,11,12,12],"right_children":[2,4,-1,6,8,-1,10,12,-1,-1,-1,14,16,-1,-1,-1,-1],"split_conditions":[9.4941616E-1,1.4350797E-2,9.685459E-2,5.482703E-3,1.0466545E-1,-8.055645E-2,5.0396845E-3,2.703289E-3,-3.3591587E-2,-2.4643212E-3,-5.7660352E-2,7.566772E-4,4.9155075E-2,7.923164E-3,-5.2978355E-2,9.105435E-3,4.360247E-2],"split_indices":[3,3,0,3,0,0,0,0,0,0,0,0,3,0,0,0,0],"split_type":[0,0,0,0,0,0,0,0,0,0,0,0,0,0,0,0,0],"sum_hessian":[9.017554E1,6.6084496E1,2.4091043E1,2.9472036E1,3.661246E1,1.8525476E1,1.094656E1,3.0492744E1,6.119715E0,5.0234814E0,5.9230785E0,1.4468509E1,1.6024237E1,8.786591E0,5.681918E0,5.056067E0,1.0968169E1],"tree_param":{"num_deleted":"0","num_feature":"4","num_nodes":"17","size_leaf_vector":"1"}},{"base_weights":[-1.5773047E-2,-3.5557738E-1,9.641241E-2,-5.913167E-1,4.4716727E-2,-8.857312E-2,-3.9063516E-1,1.88545E-1,-4.043708E-2,7.75409E-3,-5.4050565E-1,-1.0481386E-2,4.2393785E-2,-2.470435E-2,-7.16215E-2],"categories":[],"categories_nodes":[],"categories_segments":[],"categories_sizes":[],"default_left":[0,0,0,0,0,0,0,0,0,0,0,0,0,0,0],"id":53,"left_children":[1,3,-1,5,7,-1,9,11,-1,-1,13,-1,-1,-1,-1],"loss_changes":[2.9794142E1,6.2928076E0,0E0,2.1274347E0,1.7260534E0,0E0,1.9141808E0,1.4274775E0,0E0,0E0,8.7179756E-1,0E0,0E0,0E0,0E0],"parents":[2147483647,0,0,1,1,3,3,4,4,6,6,7,7,10,10],"right_children":[2,4,-1,6,8,-1,10,12,-1,-1,14,-1,-1,-1,-1],"split_conditions":[9.4941616E-1,4.9155075E-2,9.641241E-2,4.326668E-3,3.307716E-3,-8.857312E-2,5.230486E-6,1.5560144E-1,-4.043708E-2,7.75409E-3,1.0511788E-2,-1.0481386E-2,4.2393785E-2,-2.470435E-2,-7.16215E-2],"split_indices":[3,3,0,3,1,0,1,3,0,0,3,0,0,0,0],"split_type":[0,0,0,0,0,0,0,0,0,0,0,0,0,0,0],"sum_hessian":[8.7449486E1,6.540556E1,2.204392E1,4.0863327E1,2.4542242E1,1.5179815E1,2.568351E1,1.9028261E1,5.51398E0,6.3450394E0,1.933847E1,8.718072E0,1.031019E1,8.143511E0,1.1194961E1],"tree_param":{"num_deleted":"0","num_feature":"4","num_nodes":"15","size_leaf_vector":"1"}},{"base_weights":[-3.0938907E-2,-3.500171E-1,9.583403E-2,-7.714951E-2,-1.9467202E-1,3.1376105E-2,-5.862849E-1,-2.252868E-1,4.125126E-1,-8.383281E-2,-1.5567066E-2,-4.383701E-3,-5.097412E-2,7.383721E-2,-7.139658E-3],"categories":[],"categories_nodes":[],"categories_segments":[],"categories_sizes":[],"default_left":[0,0,0,0,0,0,0,0,0,0,0,0,0,0,0],"id":54,"left_children":[1,3,-1,-1,5,7,9,11,13,-1,-1,-1,-1,-1,-1],"loss_changes":[2.6672857E1,4.0284567E0,0E0,0E0,4.264923E0,3.161059E0,1.7804275E0,9.7841233E-1,2.0986438E0,0E0,0E0,0E0,0E0,0E0,0E0],"parents":[2147483647,0,0,1,1,4,4,5,5,6,6,7,7,8,8],"right_children":[2,4,-1,-1,6,8,10,12,14,-1,-1,-1,-1,-1,-1],"split_conditions":[9.4941616E-1,5.482703E-3,9.583403E-2,-7.714951E-2,1.1270249E-2,2.703289E-3,1.0292498E-1,9.129028E-4,4.1429244E-2,-8.383281E-2,-1.5567066E-2,-4.383701E-3,-5.097412E-2,7.383721E-2,-7.139658E-3],"split_indices":[3,3,0,0,0,0,3,0,2,0,0,0,0,0,0],"split_type":[0,0,0,0,0,0,0,0,0,0,0,0,0,0,0],"sum_hessian":[8.243674E1,6.282092E1,1.961582E1,1.5850215E1,4.6970703E1,3.0363853E1,1.6606848E1,1.8389202E1,1.1974651E1,9.878207E0,6.7286406E0,1.1932025E1,6.457177E0,6.8416834E0,5.132968E0],"tree_param":{"num_deleted":"0","num_feature":"4","num_nodes":"15","size_leaf_vector":"1"}},{"base_weights":[6.727321E-2,-1.951588E-1,9.527991E-2,-6.230863E-1,9.412368E-2,-7.896649E-2,-3.989918E-1,4.5365464E-2,1.922962E-2,-1.9244036E-3,-6.376987E-2,-3.6880683E-2,1.51141E-1,-1.2149441E-2,2.881063E-2],"categories":[],"categories_nodes":[],"categories_segments":[],"categories_sizes":[],"default_left":[0,0,0,0,0,0,0,0,0,0,0,0,0,0,0],"id":55,"left_children":[1,3,-1,5,7,-1,9,-1,11,-1,-1,-1,13,-1,-1],"loss_changes":[1.906875E1,7.920577E0,0E0,6.460619E-1,1.0350084E0,0E0,1.1661263E0,0E0,1.7512258E0,0E0,0E0,0E0,9.8458105E-1,0E0,0E0],"parents":[2147483647,0,0,1,1,3,3,4,4,6,6,8,8,12,12],"right_children":[2,4,-1,6,8,-1,10,-1,12,-1,-1,-1,14,-1,-1],"split_conditions":[9.4941616E-1,1.4350797E-2,9.527991E-2,4.326668E-3,4.493475E-3,-7.896649E-2,6.9364044E-3,4.5365464E-2,3.69115E-2,-1.9244036E-3,-6.376987E-2,-3.6880683E-2,2.1177452E-2,-1.2149441E-2,2.881063E-2],"split_indices":[3,3,0,3,2,0,3,0,3,0,0,0,2,0,0],"split_type":[0,0,0,0,0,0,0,0,0,0,0,0,0,0,0],"sum_hessian":[8.025469E1,6.250924E1,1.7745453E1,2.4747318E1,3.776192E1,1.2747661E1,1.1999658E1,5.638218E0,3.2123703E1,5.0486355E0,6.951022E0,7.6942086E0,2.4429497E1,8.206685E0,1.622281E1],"tree_param":{"num_deleted":"0","num_feature":"4","num_nodes":"15","size_leaf_vector":"1"}},{"base_weights":[6.5841903E-3,-6.0156673E-1,4.654213E-1,-7.0653605E-1,-2.5272146E-2,1.4261803E-1,9.479158E-2,-9.310485E-2,-4.2607412E-1,-2.7198981E-2,5.3194787E-2,-5.8233743E-3,-7.4223205E-2,1.07008286E-1,-3.3244092E-2,-2.2612369E-2,5.7332553E-2],"categories":[],"categories_nodes":[],"categories_segments":[],"categories_sizes":[],"default_left":[0,0,0,0,0,0,0,0,0,0,0,0,0,0,0,0,0],"id":56,"left_children":[1,3,5,7,-1,9,-1,-1,11,13,-1,-1,-1,15,-1,-1,-1],"loss_changes":[2.1400347E1,1.0292778E0,6.6717634E0,1.1647825E0,0E0,1.8235315E0,0E0,0E0,1.4533987E0,8.550361E-1,0E0,0E0,0E0,2.4056103E0,0E0,0E0,0E0],"parents":[2147483647,0,0,1,1,2,2,3,3,5,5,8,8,9,9,13,13],"right_children":[2,4,6,8,-1,10,-1,-1,12,14,-1,-1,-1,16,-1,-1,-1],"split_conditions":[3.69115E-2,2.5916076E-1,9.4941616E-1,6.7665363E-3,-2.5272146E-2,1.076806E-1,9.479158E-2,-9.310485E-2,1.8111907E-2,2.5651231E-2,5.3194787E-2,-5.8233743E-3,-7.4223205E-2,1.0680826E-2,-3.3244092E-2,-2.2612369E-2,5.7332553E-2],"split_indices":[3,2,3,3,0,2,0,0,2,2,0,0,0,2,0,0,0],"split_type":[0,0,0,0,0,0,0,0,0,0,0,0,0,0,0,0,0],"sum_hessian":[7.468878E1,3.1984665E1,4.270412E1,2.3798285E1,8.186379E0,2.6362442E1,1.6341677E1,1.1929173E1,1.1869112E1,1.9003622E1,7.358819E0,6.033502E0,5.8356094E0,1.3651034E1,5.352588E0,8.263072E0,5.3879623E0],"tree_param":{"num_deleted":"0","num_feature":"4","num_nodes":"17","size_leaf_vector":"1"}},{"base_weights":[5.1553026E-3,-2.4697264E-1,9.4155796E-2,-6.7041117E-1,-1.6257403E-2,-8.380901E-2,-3.9771948E-2,9.759499E-2,-6.3075095E-2,-2.3835562E-1,3.7628183E-1,2.413212E-2,-6.2261607E-2,1.9883526E-2,6.9324575E-2],"categories":[],"categories_nodes":[],"categories_segments":[],"categories_sizes":[],"default_left":[0,0,0,0,0,0,0,0,0,0,0,0,0,0,0],"id":57,"left_children":[1,3,-1,5,7,-1,-1,9,-1,11,13,-1,-1,-1,-1],"loss_changes":[1.753027E1,5.7057858E0,0E0,6.0921764E-1,2.7832685E0,0E0,0E0,3.2437074E0,0E0,3.0785184E0,9.196038E-1,0E0,0E0,0E0,0E0],"parents":[2147483647,0,0,1,1,3,3,4,4,7,7,9,9,10,10],"right_children":[2,4,-1,6,8,-1,-1,10,-1,12,14,-1,-1,-1,-1],"split_conditions":[9.4941616E-1,1.01502985E-2,9.4155796E-2,4.326668E-3,1.0408392E-2,-8.380901E-2,-3.9771948E-2,7.156138E-2,-6.3075095E-2,4.38252E-3,1.7422787E-4,2.413212E-2,-6.2261607E-2,1.9883526E-2,6.9324575E-2],"split_indices":[3,3,0,3,1,0,0,3,0,0,1,0,0,0,0],"split_type":[0,0,0,0,0,0,0,0,0,0,0,0,0,0,0],"sum_hessian":[7.226652E1,5.7516388E1,1.4750127E1,1.9613447E1,3.790294E1,1.0861363E1,8.752084E0,3.268778E1,5.215162E0,1.48868E1,1.7800978E1,6.7867746E0,8.100025E0,1.2455374E1,5.345605E0],"tree_param":{"num_deleted":"0","num_feature":"4","num_nodes":"15","size_leaf_vector":"1"}},{"base_weights":[2.0995477E-2,-2.1050248E-1,9.345757E-2,-6.965309E-2,-6.515214E-2,5.6012634E-2,-6.318598E-2,-4.683647E-2,2.6926666E-1,1.3457352E-2,-5.5101037E-2,1.1805733E-3,4.7492024E-2],"categories":[],"categories_nodes":[],"categories_segments":[],"categories_sizes":[],"default_left":[0,0,0,0,0,0,0,0,0,0,0,0,0],"id":58,"left_children":[1,3,-1,-1,5,7,-1,9,11,-1,-1,-1,-1],"loss_changes":[1.4957827E1,3.9460926E0,0E0,0E0,3.0976439E0,8.3860886E-1,0E0,2.4758196E0,6.510225E-1,0E0,0E0,0E0,0E0],"parents":[2147483647,0,0,1,1,4,4,5,5,7,7,8,8],"right_children":[2,4,-1,-1,6,8,-1,10,12,-1,-1,-1,-1],"split_conditions":[9.4941616E-1,5.482703E-3,9.345757E-2,-6.965309E-2,1.0466545E-1,7.235345E-2,-6.318598E-2,2.5030134E-2,4.9155075E-2,1.3457352E-2,-5.5101037E-2,1.1805733E-3,4.7492024E-2],"split_indices":[3,3,0,0,0,2,0,2,3,0,0,0,0],"split_type":[0,0,0,0,0,0,0,0,0,0,0,0,0],"sum_hessian":[6.8795074E1,5.5500923E1,1.3294149E1,1.1903944E1,4.3596977E1,3.666005E1,6.93693E0,2.5258595E1,1.1401454E1,1.9114107E1,6.144486E0,5.5325603E0,5.868894E0],"tree_param":{"num_deleted":"0","num_feature":"4","num_nodes":"13","size_leaf_vector":"1"}},{"base_weights":[-2.0008098E-2,-2.4231435E-1,9.286734E-2,-7.601141E-2,-9.750562E-2,7.3597685E-2,-2.401918E-1,-2.1664838E-1,5.9560187E-2,-5.252574E-2,-5.7601348E-2,1.5047803E-2,-7.383448E-2,2.334812E-2,-2.7412627E-2],"categories":[],"categories_nodes":[],"categories_segments":[],"categories_sizes":[],"default_left":[0,0,0,0,0,0,0,0,0,0,0,0,0,0,0],"id":59,"left_children":[1,3,-1,-1,5,7,9,11,-1,-1,13,-1,-1,-1,-1],"loss_changes":[1.4723174E1,4.161393E0,0E0,0E0,1.1233749E0,3.3651912E0,1.2673544E0,2.8806446E0,0E0,0E0,1.0925682E0,0E0,0E0,0E0,0E0],"parents":[2147483647,0,0,1,1,4,4,5,5,6,6,7,7,10,10],"right_children":[2,4,-1,-1,6,8,10,12,-1,-1,14,-1,-1,-1,-1],"split_conditions":[9.4941616E-1,5.482703E-3,9.286734E-2,-7.601141E-2,2.5030134E-2,1.1018698E-2,8.939456E-2,5.254882E-3,5.9560187E-2,-5.252574E-2,3.5966885E-5,1.5047803E-2,-7.383448E-2,2.334812E-2,-2.7412627E-2],"split_indices":[3,3,0,0,2,2,2,2,0,0,1,0,0,0,0],"split_type":[0,0,0,0,0,0,0,0,0,0,0,0,0,0,0],"sum_hessian":[6.7744865E1,5.548706E1,1.2257807E1,1.11977215E1,4.428934E1,2.0359398E1,2.3929941E1,1.3460196E1,6.8992033E0,8.610414E0,1.5319528E1,8.318141E0,5.1420536E0,6.5012903E0,8.818237E0],"tree_param":{"num_deleted":"0","num_feature":"4","num_nodes":"15","size_leaf_vector":"1"}},{"base_weights":[-2.48611E-2,7.572569E-2,-3.9651182E-1,5.9521277E-2,-4.8018107E-3,-7.0924856E-2,-1.3204138E-2,-3.508048E-2,9.138791E-2,5.346792E-2,-5.3001024E-2,1.3981397E-2,-2.5033373E-2],"categories":[],"categories_nodes":[],"categories_segments":[],"categories_sizes":[],"default_left":[0,0,0,0,0,0,0,0,0,0,0,0,0],"id":60,"left_children":[1,3,5,-1,7,-1,-1,-1,9,-1,11,-1,-1],"loss_changes":[2.5188184E0,2.2298093E0,1.0924807E0,0E0,1.599032E0,0E0,0E0,0E0,2.4371195E0,0E0,1.149713E0,0E0,0E0],"parents":[2147483647,0,0,1,1,2,2,4,4,8,8,10,10],"right_children":[2,4,6,-1,8,-1,-1,-1,10,-1,12,-1,-1],"split_conditions":[6.941154E-2,3.7787957E-3,3.272434E-2,5.9521277E-2,1.1018698E-2,-7.0924856E-2,-1.3204138E-2,-3.508048E-2,2.5030134E-2,5.346792E-2,4.6873203E-5,1.3981397E-2,-2.5033373E-2],"split_indices":[0,2,2,0,2,0,0,0,2,0,1,0,0],"split_type":[0,0,0,0,0,0,0,0,0,0,0,0,0],"sum_hessian":[6.557523E1,5.2234325E1,1.3340908E1,6.1525416E0,4.6081783E1,5.3420987E0,7.99881E0,9.448321E0,3.663346E1,8.336467E0,2.8296995E1,1.4459758E1,1.3837237E1],"tree_param":{"num_deleted":"0","num_feature":"4","num_nodes":"13","size_leaf_vector":"1"}},{"base_weights":[8.226087E-3,-1.903991E-1,9.221556E-2,-6.1191463E-1,1.0566199E-3,-7.7061474E-2,-1.7896345E-2,3.19293E-2,-6.6973746E-2,-3.1298307E-1,6.748435E-2,-5.7755215E-3,-5.4867346E-2,2.1408593E-2,-3.508068E-2],"categories":[],"categories_nodes":[],"categories_segments":[],"categories_sizes":[],"default_left":[0,0,0,0,0,0,0,0,0,0,0,0,0,0,0],"id":61,"left_children":[1,3,-1,5,7,-1,-1,-1,9,11,13,-1,-1,-1,-1],"loss_changes":[1.2457781E1,4.5529504E0,0E0,1.0727878E0,8.827958E-1,0E0,0E0,0E0,1.1327882E0,6.93437E-1,1.4581105E0,0E0,0E0,0E0,0E0],"parents":[2147483647,0,0,1,1,3,3,4,4,8,8,9,9,10,10],"right_children":[2,4,-1,6,8,-1,-1,-1,10,12,14,-1,-1,-1,-1],"split_conditions":[9.4941616E-1,1.01502985E-2,9.221556E-2,2.040282E-1,2.4369199E-6,-7.7061474E-2,-1.7896345E-2,3.19293E-2,4.9155075E-2,2.9827787E-2,2.539956E-3,-5.7755215E-3,-5.4867346E-2,2.1408593E-2,-3.508068E-2],"split_indices":[3,3,0,2,1,0,0,0,3,2,1,0,0,0,0],"split_type":[0,0,0,0,0,0,0,0,0,0,0,0,0,0,0],"sum_hessian":[6.665958E1,5.5409126E1,1.1250449E1,1.6620577E1,3.8788548E1,1.1591682E1,5.0288935E0,6.1810565E0,3.260749E1,1.1054339E1,2.1553152E1,5.904949E0,5.1493907E0,1.6321148E1,5.2320046E0],"tree_param":{"num_deleted":"0","num_feature":"4","num_nodes":"15","size_leaf_vector":"1"}},{"base_weights":[2.6298244E-3,-1.8734978E-1,9.140553E-2,-5.8730567E-1,2.999738E-2,-8.095541E-2,-3.0905223E-2,4.108745E-2,-5.0068833E-2,-2.1350583E-1,2.3212682E-1,1.8255789E-2,-5.42726E-2,6.0182344E-2,-1.5383421E-2],"categories":[],"categories_nodes":[],"categories_segments":[],"categories_sizes":[],"default_left":[0,0,0,0,0,0,0,0,0,0,0,0,0,0,0],"id":62,"left_children":[1,3,-1,5,7,-1,-1,-1,9,11,13,-1,-1,-1,-1],"loss_changes":[1.1235605E1,4.6863756E0,0E0,9.222293E-1,1.1107509E0,0E0,0E0,0E0,1.4530625E0,2.6796794E0,1.753427E0,0E0,0E0,0E0,0E0],"parents":[2147483647,0,0,1,1,3,3,4,4,8,8,9,9,10,10],"right_children":[2,4,-1,6,8,-1,-1,-1,10,12,14,-1,-1,-1,-1],"split_conditions":[9.4941616E-1,1.4350797E-2,9.140553E-2,6.1786566E-5,3.7787957E-3,-8.095541E-2,-3.0905223E-2,4.108745E-2,3.5705126E-4,1.0845129E-5,3.5855474E-3,1.8255789E-2,-5.42726E-2,6.0182344E-2,-1.5383421E-2],"split_indices":[3,3,0,1,2,0,0,0,1,1,1,0,0,0,0],"split_type":[0,0,0,0,0,0,0,0,0,0,0,0,0,0,0],"sum_hessian":[6.289958E1,5.2707542E1,1.0192037E1,1.7958563E1,3.474898E1,8.922508E0,9.036056E0,5.3182483E0,2.9430733E1,1.879107E1,1.0639662E1,8.731838E0,1.0059232E1,5.14867E0,5.490991E0],"tree_param":{"num_deleted":"0","num_feature":"4","num_nodes":"15","size_leaf_vector":"1"}},{"base_weights":[-9.948986E-2,-2.9846612E-1,9.06135E-2,-8.905981E-2,-1.7318135E-1,-2.6257914E-1,2.2951962E-2,-8.787499E-2,-6.849744E-2,-2.1964237E-2,3.927296E-2,1.9232659E-2,-2.8195878E-2],"categories":[],"categories_nodes":[],"categories_segments":[],"categories_sizes":[],"default_left":[0,0,0,0,0,0,0,0,0,0,0,0,0],"id":63,"left_children":[1,3,-1,-1,5,7,9,11,-1,-1,-1,-1,-1],"loss_changes":[1.2461947E1,3.6749387E0,0E0,0E0,7.747811E-1,2.1681774E0,1.400169E0,1.2783226E0,0E0,0E0,0E0,0E0,0E0],"parents":[2147483647,0,0,1,1,4,4,5,5,6,6,7,7],"right_children":[2,4,-1,-1,6,8,10,12,-1,-1,-1,-1,-1],"split_conditions":[9.4941616E-1,4.326668E-3,9.06135E-2,-8.905981E-2,1.5560144E-1,1.8448344E-2,1.3970548E-2,1.8724803E-2,-6.849744E-2,-2.1964237E-2,3.927296E-2,1.9232659E-2,-2.8195878E-2],"split_indices":[3,3,0,0,3,0,0,3,0,0,0,0,0],"split_type":[0,0,0,0,0,0,0,0,0,0,0,0,0],"sum_hessian":[5.992841E1,5.061647E1,9.311939E0,7.7725525E0,4.2843918E1,2.9197077E1,1.364684E1,2.1508944E1,7.688134E0,8.4857435E0,5.1610966E0,8.805447E0,1.2703496E1],"tree_param":{"num_deleted":"0","num_feature":"4","num_nodes":"13","size_leaf_vector":"1"}},{"base_weights":[8.697536E-3,2.9825783E-1,-6.8796106E-2,8.768143E-3,4.2404424E-2,-2.8367245E-1,7.8988664E-2,-1.337155E-1,-4.961145E-2,2.8243763E-2,-2.2725794E-2,1.7922483E-3,-2.3142895E-2,-2.9856274E-2,2.0565005E-1,4.213266E-2,-3.4498672E-3],"categories":[],"categories_nodes":[],"categories_segments":[],"categories_sizes":[],"default_left":[0,0,0,0,0,0,0,0,0,0,0,0,0,0,0,0,0],"id":64,"left_children":[1,3,5,-1,-1,7,9,11,-1,-1,13,-1,-1,-1,15,-1,-1],"loss_changes":[1.3615423E0,3.0198705E-1,1.5453377E0,0E0,0E0,5.631838E-1,6.1061907E-1,1.9607243E-1,0E0,0E0,1.345923E0,0E0,0E0,0E0,6.2298286E-1,0E0,0E0],"parents":[2147483647,0,0,1,1,2,2,5,5,6,6,7,7,10,10,14,14],"right_children":[2,4,6,-1,-1,8,10,12,-1,-1,14,-1,-1,-1,16,-1,-1],"split_conditions":[3.9848683E-6,2.242554E-2,8.224078E-5,8.768143E-3,4.2404424E-2,9.941491E-3,1.2919317E-2,1.7429512E-2,-4.961145E-2,2.8243763E-2,1.0615228E-3,1.7922483E-3,-2.3142895E-2,-2.9856274E-2,1.1094847E-1,4.213266E-2,-3.4498672E-3],"split_indices":[1,2,1,0,0,0,2,2,0,0,1,0,0,0,2,0,0],"split_type":[0,0,0,0,0,0,0,0,0,0,0,0,0,0,0,0,0],"sum_hessian":[5.8762848E1,1.1804758E1,4.6958088E1,5.0491495E0,6.755609E0,1.8760773E1,2.8197315E1,1.1952943E1,6.8078303E0,8.806271E0,1.9391045E1,5.0039988E0,6.948944E0,8.64369E0,1.0747354E1,5.2647047E0,5.4826493E0],"tree_param":{"num_deleted":"0","num_feature":"4","num_nodes":"17","size_leaf_vector":"1"}},{"base_weights":[8.02708E-3,-1.5510288E-1,8.990338E-2,-6.525175E-2,-1.8467162E-2,-2.1958683E-1,1.21581994E-1,1.1786925E-2,-5.4101E-2,5.7388723E-2,-3.9686047E-2,-3.2783702E-2,2.7958248E-2],"categories":[],"categories_nodes":[],"categories_segments":[],"categories_sizes":[],"default_left":[0,0,0,0,0,0,0,0,0,0,0,0,0],"id":65,"left_children":[1,3,-1,-1,5,7,9,-1,-1,-1,11,-1,-1],"loss_changes":[9.051687E0,3.5683193E0,0E0,0E0,1.2197436E0,1.9883616E0,1.8910471E0,0E0,0E0,0E0,1.9147114E0,0E0,0E0],"parents":[2147483647,0,0,1,1,4,4,5,5,6,6,10,10],"right_children":[2,4,-1,-1,6,8,10,-1,-1,-1,12,-1,-1],"split_conditions":[9.4941616E-1,6.7665363E-3,8.990338E-2,-6.525175E-2,2.703289E-3,6.181284E-4,6.268319E-3,1.1786925E-2,-5.4101E-2,5.7388723E-2,1.0292498E-1,-3.2783702E-2,2.7958248E-2],"split_indices":[3,3,0,0,0,0,0,0,0,0,3,0,0],"split_type":[0,0,0,0,0,0,0,0,0,0,0,0,0],"sum_hessian":[6.0315804E1,5.1679913E1,8.635892E0,1.0323217E1,4.1356693E1,1.6743711E1,2.4612984E1,8.4770775E0,8.266633E0,5.7966485E0,1.8816334E1,9.876033E0,8.940302E0],"tree_param":{"num_deleted":"0","num_feature":"4","num_nodes":"13","size_leaf_vector":"1"}},{"base_weights":[-1.7653162E-2,-1.7334813E-1,8.895209E-2,